Layer 1


Neuron 1

-0.499992 -0.368462 0.255605 -0.0413499 0.0327672 -0.281041 -0.452955 0.178865 0.179296 0.434693 -0.116498 0.0194164 0.330965 -0.465428 -0.446538 0.0297002 0.171149 -0.492302 -0.116584 -0.433158 -0.082514 0.186773 0.0889766 0.430436 0.346167 0.0269288 -0.408035 0.153919 -0.0840006 0.201191 0.410321 0.262198 -0.237547 -0.452535 0.236082 -0.171766 0.132639 0.25641 0.491037 -0.134661 -0.252961 0.48255 0.22266 0.253356 0.151519 -0.427314 0.131635 0.384707 -0.22729 -0.0635886 0.266495 -0.0222682 -0.262226 -0.225093 -0.140735 -0.333493 -0.0134826 0.397656 0.409208 -0.439436 0.404653 0.00452289 0.016292 -0.180967 

Neuron 2

0.486642 -0.00602332 -0.233855 -0.409267 0.447764 -0.426251 0.000707095 -0.115858 -0.222918 0.413817 0.0297474 -0.0355542 0.44098 -0.449916 0.261514 0.270205 0.327817 -0.374635 -0.484132 0.188455 0.368247 0.129543 0.236225 0.225412 0.499458 0.388572 -0.266805 -0.193678 -0.148985 0.0132737 0.0911136 0.345982 -0.0879192 0.341511 -0.230683 -0.0846054 0.037304 -0.0320826 -0.212788 -0.321672 -0.34628 0.0716548 0.302406 -0.466946 0.0344498 -0.00151988 0.455361 0.248293 0.0545838 0.390737 0.124849 0.34204 -0.340232 -0.287248 0.21471 -0.369573 -0.40901 -0.225412 -0.497 -0.0857067 -0.473124 0.20982 0.437897 -0.260089 

Neuron 3

-0.319104 -0.18246 0.386991 0.152059 -0.349665 0.181346 -0.114185 -0.112275 -0.000258968 -0.352467 0.0871866 0.345576 0.0901086 0.455409 0.0561461 -0.351848 0.483305 -0.0912333 -0.35818 0.0648987 -0.247874 -0.0114855 -0.0359695 0.461095 -0.373969 -0.300243 -0.18075 0.129269 -0.373288 0.151254 0.121634 0.303073 -0.252158 -0.0235682 -0.110686 -0.29675 -0.471625 0.401673 -0.0735026 -0.357979 0.447487 -0.089687 -0.368811 0.385648 -0.407826 -0.337801 -0.428936 -0.134661 -0.246943 -0.364891 0.283153 -0.0446927 -0.150476 -0.0476998 0.308945 0.431674 0.151646 -0.284752 0.179592 0.408922 -0.249874 0.36086 -0.0287377 0.00595588 

Neuron 4

0.100394 0.317561 0.255844 -0.037755 0.451367 0.132739 -0.0606697 0.324697 0.188981 0.202207 0.487145 0.454415 0.35127 -0.210684 0.0374257 0.0144347 -0.396566 -0.0859715 0.0767166 0.376566 -0.0599613 0.229748 0.369264 0.215642 0.30072 0.206535 0.241716 -0.480908 0.386031 0.0249874 -0.0366773 -0.434806 0.213422 -0.0110568 0.167679 0.182049 -0.300445 0.416634 0.365883 0.390019 0.0439483 -0.360805 -0.0496526 0.489362 -0.284468 -0.0539766 -0.184268 0.0146595 0.381504 -0.0602744 -0.0324682 0.30665 -0.134842 -0.288481 0.499117 -0.346396 0.130488 0.11635 -0.499405 -0.499121 0.273352 0.227335 -0.180822 -0.0822763 

Neuron 5

0.182494 0.180562 -0.294738 0.33642 0.208921 0.328708 -0.405451 -0.418262 0.264005 0.129572 -0.286148 -0.286453 -0.418939 -0.111177 0.45216 0.447545 -0.110146 -0.230785 0.192169 -0.215965 0.276866 0.283865 -0.0775402 -0.217844 -0.306033 -0.488684 -0.308176 0.483236 -0.255946 0.319726 -0.363545 -0.101856 0.10101 -0.32312 0.328355 -0.342269 0.487937 -0.242831 -0.266401 -0.398363 -0.280589 0.134717 0.196007 0.29477 0.196243 0.25294 0.169521 0.13343 -0.443559 0.0982166 -0.272992 -0.181222 0.199834 -0.382563 0.262571 0.0261233 0.0539113 0.0879889 -0.170334 0.202989 -0.356955 -0.338312 -0.0146748 0.360226 

Neuron 6

0.313266 0.0568358 0.238997 -0.183993 -0.364668 0.0285483 -0.189261 0.0881191 0.0180836 -0.0691522 -0.241157 -0.129774 -0.106982 -0.0531341 -0.0241038 -0.112169 -0.220707 -0.421737 -0.130258 -0.246078 0.171784 0.176237 0.0139364 0.228608 0.220768 0.444753 -0.0393027 0.440163 -0.17844 -0.0395658 0.0171453 0.161355 -0.0981671 0.10564 0.486503 -0.349606 0.170098 -0.156182 0.0417102 0.0228077 0.329239 -0.485049 -0.22579 0.142979 0.0461366 0.417848 -0.233387 0.470087 -0.253267 0.343975 0.194024 -0.0442484 0.317101 -0.477916 -0.339251 0.20695 0.207826 -0.0633616 0.0824211 0.25171 0.491533 0.195679 -0.220488 0.253863 

Neuron 7

-0.328821 -0.495746 -0.00430892 -0.420083 -0.336919 0.403301 0.282992 0.246679 -0.0635743 -0.493658 0.0847872 0.0184784 -0.43315 0.0440227 -0.110269 -0.284174 -0.114231 0.126861 0.159053 0.20932 0.0386613 -0.219711 0.315932 -0.12809 0.186102 -0.189831 -0.490652 -0.396203 0.0209601 0.27588 -0.279315 -0.444721 -0.429365 -0.339726 0.223764 -0.202978 -0.449397 -0.0221957 -0.0428381 0.0199885 -0.0535104 -0.349688 -0.214058 0.333682 0.195637 0.077776 0.181164 -0.168825 -0.442525 0.486883 0.0423931 -0.498343 0.356193 -0.470645 -0.12245 -0.0103483 0.076173 0.238959 0.179332 0.0362668 -0.464412 -0.377493 0.473356 -0.311724 

Neuron 8

-0.148681 0.114126 0.107611 -0.374067 0.0528621 0.454028 -0.143075 0.338102 0.474252 -0.240986 -0.248472 -0.0756641 0.313048 0.397914 -0.255414 0.260617 0.194856 -0.0481488 -0.23638 0.165503 -0.383429 -0.290438 -0.386324 0.0469748 -0.493921 -0.324026 0.0993593 -0.0680917 -0.417493 0.187414 -0.12469 0.336207 -0.376363 0.473346 -0.470365 -0.419647 -0.00575537 0.269437 0.43403 -0.249845 -0.140342 0.269114 -4.46688e-05 0.249252 0.171903 0.181666 0.25677 -0.463632 -0.269428 -0.278333 0.062602 0.152622 0.11661 -0.128534 -0.275199 -0.266309 0.153012 -0.334072 0.244104 -0.340242 -0.452361 0.161994 -0.375055 0.449157 

Neuron 9

-0.0158195 0.121046 0.414025 -0.482055 0.0935457 0.221872 -0.003418 -0.446306 -0.0583674 0.0191749 0.271944 -0.434644 -0.0572097 0.47718 -0.0322586 -0.170944 -0.0540701 0.243274 -0.294659 -0.328621 -0.12748 0.439725 0.464851 -0.245043 -0.429665 -0.376151 0.0263378 -0.339917 0.0177072 -0.394815 0.341576 -0.131438 -0.0761095 -0.172772 0.213547 0.0767759 0.371884 0.258246 0.336598 0.199791 -0.11094 0.435242 0.105603 -0.137916 0.0395047 -0.0449276 -0.0983078 -0.25956 -0.416914 -0.0784213 -0.0276201 -0.210234 -0.395031 -0.283614 0.302019 0.0274391 0.16882 0.363643 -0.25625 0.211564 -0.236337 -0.117178 -0.418994 -0.0402372 

Neuron 10

-0.267133 0.295353 -0.00865692 -0.496771 -0.233881 0.164689 -0.0748089 -0.313175 0.463476 -0.365961 0.295856 0.446045 -0.328845 0.106001 -0.436196 -0.152508 -0.207532 0.00965823 0.325837 0.334338 0.226443 -0.170566 0.302084 0.131763 -0.454659 -0.45858 -0.346685 0.267065 -0.438269 0.0193032 0.42915 -0.279484 -0.295437 -0.411007 0.199691 0.206461 -0.00536909 -0.238221 0.211571 -0.121634 -0.299355 -0.267392 -0.0639038 -0.0305015 0.361187 0.477238 -0.0554808 -0.465757 0.0237717 -0.468361 0.253174 0.0915882 0.322891 -0.170421 -0.267922 0.0365283 -0.0693816 -0.0964189 0.487325 0.46691 0.350531 0.367514 -0.188395 -0.35161 

Neuron 11

0.497599 0.139523 -0.0319253 0.431915 0.190773 0.315407 0.0415346 0.0728065 -0.340784 0.44525 0.321334 -0.344586 -0.458925 -0.156387 -0.389981 -0.403462 0.0187733 -0.477595 0.0614837 0.356876 0.0169081 0.174525 0.237175 0.19846 -0.4772 -0.308016 0.170991 -0.154128 -0.43371 -0.35929 0.421117 -0.278344 -0.119885 0.0860158 -0.332687 -0.47366 0.191126 0.262344 0.213695 -0.422676 0.0898093 0.425503 0.429698 -0.069554 0.00596961 0.331256 0.419236 0.101638 0.223836 0.0193366 -0.00918299 -0.338581 0.476116 0.0743603 -0.226749 0.0314273 0.198558 0.167049 -0.402567 0.0487363 0.110738 0.167965 -0.00487466 0.0715826 

Neuron 12

0.088888 -0.0586868 -0.348783 0.00227473 0.231364 -0.468343 -0.448383 0.0220635 -0.179358 -0.46494 -0.254858 -0.392819 -0.117031 0.0518294 0.0971685 0.111111 0.435252 0.27203 0.0131485 -0.0133188 0.150128 0.196996 -0.0924623 -0.0131505 -0.0202171 0.21045 0.0341986 -0.223353 0.105538 -0.219896 0.203369 0.0304896 0.438254 -0.264597 -0.0865058 0.0974762 0.283002 0.420252 0.181491 0.321177 0.027413 -0.26973 -0.356316 0.399521 -0.248578 0.151515 -0.495184 0.435936 -0.224647 0.358766 -0.221071 0.452431 0.00681995 -0.37705 -0.0835246 0.202471 -0.0635088 -0.392261 0.266175 -0.400134 -0.0587348 -0.155424 -0.202936 0.257621 

Neuron 13

-0.161295 -0.168671 -0.442929 0.0726213 -0.0117284 -0.297382 -0.385647 0.472706 0.36553 -0.0069853 -0.131338 0.30511 -0.33714 -0.340533 -0.441938 -0.350184 -0.0317736 -0.120205 0.382888 -0.076304 -0.0872895 0.151511 -0.191749 -0.440023 0.312603 0.399053 0.419747 0.400874 0.27029 -0.331423 0.0729716 -0.464961 0.302294 0.0213727 0.362052 -0.222136 0.36862 0.0886698 -0.11162 0.313315 0.0258455 0.441655 -0.078791 0.0810198 0.250303 0.381124 -0.161984 -0.310497 0.243758 0.219435 0.379769 -0.42785 0.209626 0.378747 -0.141089 -0.410709 -0.339462 -0.0825953 -0.402974 0.174231 0.063438 0.312324 0.377838 0.270681 

Neuron 14

0.135474 0.397794 0.381657 -0.0148435 -0.380295 -0.122151 -0.117619 0.183784 -0.376266 -0.420544 -0.353845 -0.021807 0.210072 -0.26224 -0.108302 0.47702 0.129123 0.179427 0.406838 -0.138542 0.36019 0.294661 -0.0712659 -0.426964 -0.00542793 -0.012852 -0.0487322 -0.00110764 0.241336 0.427718 -0.198691 -0.345492 -0.392164 -0.421624 0.473549 -0.0905459 -0.263293 0.467274 0.331601 -0.298661 -0.37027 -0.299653 -0.158134 0.0784447 -0.0571202 0.086308 -0.0671851 -0.131811 -0.11627 0.101266 -0.0692856 -0.352857 0.16908 0.49476 0.196806 -0.0986098 0.348223 0.32079 0.294719 -0.126775 -0.488547 -0.0216713 0.138101 0.14953 

Neuron 15

0.144721 0.299058 -0.122595 -0.142422 -0.110392 -0.165618 0.193618 -0.355324 -0.208498 0.166927 0.354453 -0.185169 -0.355805 0.102235 -0.494426 0.420721 -0.117952 0.0165425 -0.155617 -0.235849 -0.20904 0.333546 -0.375577 0.134494 -0.4514 -0.0417115 -0.123211 -0.344141 0.255905 0.165677 -0.488439 0.295274 0.0608591 -0.211459 -0.0842952 -0.179592 0.0148233 0.219328 0.341888 -0.267938 -0.035144 -0.126492 -0.449754 -0.425892 -0.297465 0.0660591 0.331622 -0.0773509 0.339581 -0.206951 -0.318903 -0.142553 0.434056 0.0894682 -0.131222 -0.0370725 0.127852 0.444375 -0.0941808 -0.449532 -0.0551107 0.0960756 0.248109 0.36433 

Neuron 16

-0.368984 -0.39542 0.16531 0.333374 0.0812896 0.158597 0.482034 -0.481093 0.421472 -0.305318 0.467727 0.023078 -0.221202 0.219794 0.090458 0.337077 0.334695 0.159888 0.230445 0.143027 -0.150473 0.0348719 0.164149 -0.176576 0.369184 -0.0576196 0.417966 -0.223333 0.451755 -0.382775 -0.0839913 0.336392 0.462533 -0.167076 0.0261877 0.0359479 0.318117 0.429897 0.162887 -0.256765 0.441423 0.0967294 -0.373958 -0.253016 0.386729 -0.303827 -0.337038 0.336001 0.102407 0.123243 0.338675 0.171645 -0.108447 0.371286 0.167337 -0.384399 -0.499959 0.176062 0.128755 -0.0454534 0.0743476 -0.467724 -0.148616 0.355089 

Neuron 17

-0.129163 0.161425 0.0764301 -0.44004 0.244468 -0.220507 -0.0573763 -0.32358 -0.408199 0.397245 0.492419 0.0941592 -0.466996 0.190932 -0.0127882 0.0693399 0.395724 -0.0654972 0.188594 -0.296842 -0.0182797 -0.227557 0.44712 -0.2557 0.453262 -0.0230483 -0.372912 0.461436 0.357156 -0.28259 -0.492992 0.282475 -0.449607 0.460055 0.141374 0.0734002 -0.362907 -0.370957 0.324627 0.00185374 0.155888 0.00505899 0.0264544 -0.381603 0.403056 0.168904 -0.222414 -0.113293 -0.108507 0.331097 -0.256999 -0.376556 0.228307 0.148075 -0.298783 0.348695 -0.477444 -0.394438 -0.312021 -0.139033 0.279658 0.219204 0.166364 0.0809693 

Neuron 18

-0.148827 -0.342846 -0.207909 -0.33089 -0.276303 0.171352 -0.0952349 0.38651 0.0793623 -0.158152 -0.0627596 0.199639 0.334283 0.291982 0.349068 -0.21778 -0.235338 -0.330039 0.0335321 -0.426816 0.498736 0.250171 -0.377779 -0.3354 -0.074893 0.273202 -0.286432 -0.0660717 -0.466923 0.429321 -0.393957 -0.233713 -0.0179513 0.29278 -0.242476 -0.286084 -0.217536 -0.119372 -0.291877 0.428528 0.264064 0.116563 0.0758527 -0.143666 0.407848 -0.302099 -0.385893 0.29114 0.198163 -0.481749 0.247969 -0.385471 0.394964 0.154629 -0.154109 -0.117587 -0.284951 -0.168708 -0.482215 0.414368 0.28547 -0.106549 0.229983 0.331551 

Neuron 19

0.377797 -0.370391 -0.156575 0.44207 -0.137809 -0.14794 -0.419345 0.0718913 0.276393 0.344201 -0.00670451 0.317317 0.142734 -0.0646247 -0.147686 -0.150843 -0.218455 0.419119 0.126152 0.24458 -0.34246 0.276418 -0.248045 0.112058 0.354603 -0.185392 0.108444 -0.374078 -0.126338 -0.366707 -0.238137 -0.373969 -0.297183 0.250525 -0.42905 -0.0410863 0.463244 -0.265324 -0.302482 0.183946 -0.418674 0.354236 -0.347437 -0.379823 0.309124 0.444193 -0.45448 -0.439738 0.329722 -0.358821 0.301168 -0.272512 -0.100785 0.0991941 0.155206 -0.446273 0.486364 0.312305 -0.0864204 -0.468162 -0.391951 0.474467 0.367119 0.17108 

Neuron 20

0.334369 -0.261783 0.216939 0.089708 -0.27746 -0.272238 -0.498426 -0.052186 -0.0902342 0.433005 -0.477538 0.0134989 -0.123499 0.359511 0.293872 0.109468 -0.168196 0.124005 0.153873 0.14439 -0.24088 -0.474 0.487042 -0.292251 0.142325 0.0603247 -0.123067 -0.379309 -0.0508932 -0.362284 0.0858001 0.0426003 -0.0163987 0.3866 -0.418405 -0.137407 -0.399191 -0.200789 0.341668 0.413002 0.327927 0.470299 0.31328 0.297872 0.339796 -0.0512797 0.142095 0.193926 0.315759 -0.0317907 -0.306366 -0.0984453 0.430652 -0.0327912 -0.121555 0.0175955 -0.272244 0.399267 0.485847 -0.363006 -0.0415191 0.189134 -0.220985 -0.0907217 

Neuron 21

0.239932 -0.468745 -0.196068 -0.307353 0.313189 -0.225131 0.217761 -0.0913735 0.285073 0.222293 0.0770591 0.132939 0.298596 -0.499725 0.127795 -0.153569 -0.0281435 -0.00779261 0.0296197 -0.181451 0.357925 -0.361998 -0.100858 -0.113087 0.346436 -0.443865 -0.043121 0.265532 -0.207505 0.461921 0.5 0.499092 0.241617 -0.150217 0.296585 -0.301 0.100734 0.0428245 -0.248307 -0.298383 0.0756241 0.013759 0.247701 0.10802 0.489635 0.29845 0.0547776 -0.353329 -0.39299 0.0237845 -0.2537 0.071627 -0.165635 0.178709 -0.430633 0.344641 0.376262 -0.167927 -0.3546 0.244075 0.161891 -0.0972163 0.0850274 0.0554527 

Neuron 22

-0.00588359 0.114501 0.42483 0.113926 -0.243616 -0.460337 0.120714 -0.156511 -0.475833 -0.328606 0.110723 -0.0761547 0.0684376 0.230373 -0.126027 -0.134356 -0.123723 -0.413394 0.0831153 -0.0818343 -0.389193 -0.174738 0.185165 0.0639836 0.371871 0.0318602 0.474538 -0.439759 -0.0246558 -0.389868 0.492179 0.049515 0.198705 -0.372763 -0.0250158 -0.440653 -0.0548927 0.417977 -0.0604892 0.358511 0.497177 0.0493023 -0.375716 0.346325 -0.309742 0.164346 0.156273 0.473193 -0.0423836 -0.340653 -0.360815 -0.216667 0.472964 0.0979563 0.352208 -0.437114 0.425623 0.449394 -0.0333324 -0.217769 -0.0397495 -0.0691756 0.366139 -0.301369 

Neuron 23

-0.115234 0.259196 0.314225 0.172739 0.221585 0.183365 -0.186014 -0.331517 0.188042 0.420936 -0.334236 -0.496182 -0.323694 -0.321848 -0.301948 0.168274 0.174452 0.0174822 -0.176595 -0.0330326 -0.179176 -0.406356 0.370438 -0.0548791 -0.352225 0.152046 0.441981 0.38235 0.160927 -0.296087 -0.329653 -0.483925 -0.334586 -0.390917 -0.138808 0.0611331 0.463839 -0.254506 -0.476139 -0.46996 0.386172 0.386352 0.413224 0.0474012 -0.327424 -0.0129521 0.314419 0.436609 0.0830635 0.0489065 -0.028247 0.253337 -0.167688 -0.327541 0.0129637 -0.119574 0.328165 0.467038 -0.495222 -0.19861 -0.045434 0.390453 0.343532 -0.249644 

Neuron 24

0.233911 0.339556 -0.0770388 0.208479 -0.0941259 0.0263001 0.0255603 -0.408466 -0.0963121 0.28213 -0.235211 -0.192141 -0.315032 0.256626 0.120673 0.145346 -0.172687 -0.345768 -0.315645 -0.0448008 0.0331804 -0.337572 0.42577 -0.0909424 -0.468813 -0.332715 0.0650613 0.485431 -0.359741 -0.16643 -0.190882 -0.145674 -0.337132 -0.17785 -0.120418 0.141376 0.102311 -0.462317 -0.164897 -0.421786 0.0440287 -0.00887798 -0.212129 -0.247282 -0.0606796 0.158614 -0.174421 -0.498336 0.472696 -0.39913 -0.181623 0.455516 -0.150731 -0.334594 0.485489 -0.383558 -0.458115 0.460956 0.285281 -0.27961 -0.398539 -0.245437 -0.0624893 -0.256989 

Neuron 25

-0.217406 0.0492284 0.382302 0.351649 0.170468 0.0576104 0.257833 0.401996 0.35338 0.259697 -0.26605 0.49829 -0.238717 -0.12496 -0.200497 0.245522 0.491835 0.266313 -0.0713904 0.141665 -0.0361991 -0.397532 -0.31812 0.363361 0.00335759 0.430975 0.398036 -0.208834 0.129141 0.4754 0.0440489 0.330669 -0.44519 -0.310378 0.475294 0.265209 0.369878 -0.467661 0.0184373 -0.124563 0.469667 -0.306853 -0.271429 0.0969475 0.396504 0.0494785 -0.415227 0.276984 0.27109 0.208398 -0.448064 0.383565 -0.428363 0.494661 -0.230083 -0.000226851 0.187318 0.248435 0.444647 0.189707 0.411773 -0.328773 0.315332 -0.217172 

Neuron 26

-0.0181228 0.410853 0.203183 -0.100692 -0.331564 0.402494 -0.289936 0.0483651 -0.127223 -0.236847 0.306702 -0.264166 0.158912 -0.164394 0.0221308 -0.0471169 0.10687 0.167104 -0.478234 0.319205 -0.122684 0.0417963 0.4697 0.246284 0.293286 0.258699 -0.0467718 -0.0932502 -0.255774 0.20228 -0.286181 0.161177 -0.0929508 -0.223607 -0.156851 -0.198537 0.188401 0.454292 0.278182 0.402304 -0.478344 0.47424 -0.446248 -0.090042 -0.336449 0.296038 -0.488421 0.102006 0.421468 -0.390073 0.0450154 -0.426962 0.0565171 -0.116619 -0.0185702 -0.109067 -0.0913275 0.0591088 0.441078 0.19903 0.0896359 -0.488857 -0.217238 -0.112617 

Neuron 27

0.245794 0.0656901 0.0543088 -0.231414 -0.382837 -0.33838 -0.145695 0.30831 -0.234266 -0.308329 -0.0855508 0.148154 0.0296646 -0.427145 -0.0300542 -0.121045 -0.401143 -0.00674524 -0.367185 -0.283754 -0.0617092 -0.146874 0.493806 0.392149 -0.15006 -0.0608495 0.301629 0.482168 -0.198782 0.0766378 0.0519214 -0.356756 0.00654488 -0.000164834 0.229641 -0.417402 -0.282937 -0.327073 -0.114781 -0.125378 -0.235636 -0.335315 0.356503 -0.254573 0.393365 0.291156 0.464197 -0.249254 -0.215919 0.0498137 0.218898 0.0152904 -0.0135151 -0.148131 0.358476 -0.0877896 -0.479597 0.415687 0.459515 0.068632 0.497882 -0.0994771 0.0876603 0.306355 

Neuron 28

-0.0917747 -0.456593 0.0454352 -0.369901 0.0746992 0.46922 0.181336 -0.292791 0.0638621 0.330683 -0.207128 -0.193938 0.477984 0.484922 0.0837052 -0.167131 0.0215733 -0.417605 0.30774 0.181656 0.0947643 -0.295847 -0.299598 -0.336063 -0.219212 -0.302535 0.293055 0.371827 0.2892 -0.409254 -0.339992 -0.252974 0.26144 0.0170698 -0.108207 0.367991 -0.167305 0.0967026 0.28021 0.486729 0.454354 0.322799 0.277039 0.186431 0.341948 0.127998 0.268394 -0.103345 0.0852573 -0.0799487 0.301599 -0.0222413 0.190773 0.313622 0.050919 -0.205207 0.086986 -0.0256799 0.398639 -0.0707586 -0.240081 -0.0359672 -0.499961 0.158065 

Neuron 29

-0.40816 0.0623061 0.179043 0.167623 0.245264 0.152465 0.481988 -0.220308 0.282769 -0.494818 -0.413187 -0.440803 0.426769 -0.285341 0.281356 -0.246339 -0.213409 0.238162 -0.204143 -0.0268097 0.409973 0.423061 0.391786 -0.249345 0.252406 0.18391 -0.031893 -0.0260779 -0.291247 0.00639006 0.397771 0.335066 0.458706 0.473102 0.418436 -0.351296 -0.23711 -0.103512 0.271451 0.270618 0.275716 -0.0455216 -0.081327 0.136321 0.147096 0.242002 0.329492 -0.227865 0.280221 -0.319592 -0.380003 0.287707 0.491853 -0.422745 -0.0750675 0.341116 0.133542 0.444811 -0.0696468 0.445963 0.298559 -0.122821 -0.253208 0.328705 

Neuron 30

-0.458397 -0.271399 -0.406 0.361429 -0.456509 0.454651 0.324232 0.369014 0.0119742 0.250104 0.498299 -0.0825423 -0.288397 -0.0962927 -0.391095 -0.137943 -0.403123 -0.296074 -0.11291 0.323579 0.399207 0.465837 0.317065 -0.0831607 0.317441 0.224963 -0.0414759 -0.0848996 0.0927056 0.10336 0.167519 0.48743 0.239097 -0.495798 0.125461 -0.369822 0.396096 0.177832 -0.17167 -0.263167 -0.0485404 0.180744 -0.241171 -0.354007 0.20385 0.0987797 0.190966 -0.426288 0.379646 -0.297036 -0.283261 0.232599 0.285623 0.458215 0.21546 0.240477 -0.304771 -0.284553 -0.479542 0.33916 0.260827 -0.281376 -0.0798018 -0.229299 

Neuron 31

0.176851 0.335845 -0.449508 0.122814 0.133692 -0.0422675 -0.390479 0.225235 -0.482483 -0.0871638 0.0381747 -0.397743 0.140354 -0.0642275 -0.4722 -0.257522 -0.1701 0.131842 -0.124231 0.0446403 0.268851 -0.421059 0.262721 -0.451735 -0.315406 -0.0296699 0.33848 -0.161548 -0.13165 0.353798 0.286713 -0.221437 0.315297 0.203332 0.397892 0.370376 -0.087185 -0.318019 0.0544434 0.0309306 -0.149032 0.225291 0.47199 -0.264673 -0.359152 -0.262254 0.30156 0.3223 -0.0989845 0.367889 0.10237 -0.46134 0.255131 -0.0122878 0.478601 -0.144747 0.229884 -0.334957 0.378878 -0.189672 0.177584 -0.349629 -0.212149 0.406707 

Neuron 32

-0.477831 0.0917144 0.444596 0.329331 0.0681092 -0.288658 -0.469621 0.0821171 0.141647 -0.344941 -0.431736 -0.192475 0.0743065 -0.131391 -0.289966 -0.465029 0.25695 -0.434773 -0.224652 0.270594 -0.125793 -0.197129 -0.145566 0.467253 0.122282 0.197825 -0.153409 -0.345569 0.0160091 0.0654606 0.196418 0.188987 0.307667 -0.0411593 0.236131 -0.338203 -0.17216 -0.487538 -0.0593618 0.305494 0.433097 0.0634894 0.0670599 0.0756523 0.487787 0.228453 -0.388825 0.0108255 -0.0555141 -0.0252249 0.0449863 0.0851817 -0.351507 0.225622 0.0254564 -0.154811 0.0877928 -0.467043 0.408952 0.257572 0.00796746 -0.0908572 -0.0367905 -0.337467 

Neuron 33

0.193285 -0.46533 0.192758 -0.328271 -0.249273 0.447031 0.243429 0.320091 -0.21129 -0.167361 0.155551 0.335034 -0.0756857 -0.0586103 -0.068569 -0.440954 -0.116847 0.144286 0.0180107 -0.291115 0.237829 0.188851 0.0133197 -0.13298 0.00229684 -0.376276 -0.0844103 0.313234 -0.470873 0.0405533 -0.384052 0.23289 0.132031 0.0496817 0.0107816 0.206819 0.0120907 0.220949 0.475647 0.205299 0.446474 -0.117799 0.130166 -0.315642 -0.0112564 -0.19586 0.186838 0.200235 0.349438 -0.00973999 0.300511 -0.320762 -0.0501737 -0.265989 -0.476527 0.0276886 0.3718 -0.161066 -0.0412815 0.174611 -0.312364 0.0967365 -0.142839 0.320934 

Neuron 34

-0.0768855 -0.44812 0.345061 -0.361327 0.424115 0.356078 0.32012 -0.477806 0.474937 -0.224375 0.236007 -0.400822 0.329077 0.282202 -0.487629 0.297361 0.105354 -0.482805 0.0471767 0.126815 -0.470936 -0.187974 0.0770276 -0.179384 0.151556 0.314333 0.235642 0.237053 0.186588 -0.370379 0.254251 -0.183672 -0.496801 -0.395943 0.0694084 0.383794 -0.28823 0.116199 -0.259038 0.378281 -0.41131 -0.122943 0.0937309 0.303832 -0.110198 0.147845 0.297807 -0.436926 0.480961 0.0918923 0.461592 -0.168728 0.363744 -0.249326 -0.0273466 -0.341178 0.370742 0.214785 -0.460228 -0.428047 0.290179 -0.314127 -0.458746 -0.262093 

Neuron 35

0.182137 -0.306008 0.15431 -0.158282 -0.21881 -0.181585 -0.477999 0.474468 -0.268373 0.165595 -0.274711 0.428452 -0.435791 0.287465 -0.211663 0.150232 -0.116367 -0.321669 0.238958 -0.243411 0.0336198 -0.473561 -0.218867 -0.0159669 0.429504 0.46957 0.0866621 0.383954 -0.153001 0.358622 -0.492659 -0.29781 -0.190313 -0.277602 0.00964811 0.317325 -0.283131 0.0504255 -0.310024 -0.313151 0.145295 0.399099 -0.000139687 -0.218458 -0.358738 -0.149341 -0.318447 0.193328 -0.41625 -0.456434 -0.138155 -0.256933 -0.205056 0.0683764 -0.1207 -0.15178 0.365536 -0.208898 0.420628 -0.181347 0.248724 0.160195 0.290685 0.435988 

Neuron 36

0.0156725 0.29748 0.315457 -0.197915 0.0948552 -0.174219 -0.401608 -0.452492 0.1973 -0.297688 -0.0578282 0.0147018 -0.171965 0.0460293 0.48358 0.110421 -0.495205 0.475158 0.0235775 0.141845 0.127858 -0.303602 -0.217085 -0.327485 -0.0678032 0.432998 -0.356435 -0.105648 0.37521 -0.326659 0.258021 0.323425 0.364079 0.317193 -0.17261 0.0698782 0.095294 -0.401521 0.302184 -0.382511 -0.0811265 0.256215 -0.16605 0.163976 0.0087098 0.00446466 0.393707 -0.324082 -0.0438282 -0.231152 -0.0883053 -0.047293 0.450585 0.453861 -0.027626 -0.331813 0.18252 0.019938 0.410591 0.0920464 -0.0960057 0.238367 0.473822 -0.149478 

Neuron 37

-0.122056 0.466248 0.334058 -0.408984 -0.352316 -0.392629 0.284911 0.283379 0.290312 -0.111558 -0.141255 -0.363106 -0.25175 -0.40194 -0.477553 -0.377919 0.196833 0.206894 -0.414982 0.0792742 0.430937 0.0924498 0.0871651 0.498749 0.0665076 -0.435405 -0.230679 -0.129349 -0.24114 -0.282041 0.310772 0.499961 -0.23067 -0.372429 -0.459772 0.143245 0.0675472 0.168633 0.0293228 -0.145191 0.42047 0.386638 -0.413277 -0.325727 0.354237 -0.0161945 0.451095 -0.40522 0.0995234 -0.374407 -0.06189 -0.380683 -0.108208 -0.37206 0.156694 -0.0838487 0.169606 -0.236406 -0.0223703 0.0656786 0.284553 -0.321318 -0.268791 -0.345491 

Neuron 38

0.129037 0.104289 -0.0112244 -0.413844 -0.456902 -0.15396 0.285868 0.408369 -0.0742848 0.440273 -0.228894 -0.258324 -0.0888406 0.29952 -0.36108 0.0907222 0.0818872 0.306362 0.176857 0.017662 0.32239 0.162889 0.0487622 -0.110931 0.247667 -0.309656 -0.37794 0.0527934 0.0735318 0.186046 0.106254 -0.225368 0.265071 -0.387912 -0.124531 -0.445277 -0.388989 -0.443329 -0.343168 0.292619 -0.154757 -0.218418 0.349006 -0.27479 -0.370385 0.010873 -0.242372 -0.202989 -0.215175 -0.385711 0.0164425 -0.353423 0.474115 0.316112 0.407006 0.183399 -0.196489 -0.267218 0.168267 -0.340299 -0.297227 0.188545 -0.385542 -0.422064 

Neuron 39

-0.462693 -0.370148 -0.306677 -0.276866 0.370181 0.361234 -0.210717 -0.144481 -0.00808872 -0.28705 0.177663 0.186695 -0.449334 0.267936 -0.274212 -0.485879 0.375402 -0.272442 0.210953 -0.316615 -0.436526 0.383054 0.136032 -0.441822 0.058009 0.439464 0.429466 0.380419 -0.137314 -0.203639 0.0425166 -0.300747 0.458014 -0.34645 0.215376 0.486442 -0.351335 0.159157 0.154688 0.446271 -0.425485 0.289769 -0.296698 -0.0527388 0.00176978 -0.368854 -0.00837523 -0.160449 -0.115509 -0.130696 0.134508 0.2257 0.429696 0.264743 -0.505052 0.360045 0.000347465 -0.0720492 -0.101021 0.149016 0.0437061 0.116378 -0.120264 -0.0249425 

Neuron 40

0.448131 0.269903 0.28009 -0.246091 0.313417 -0.408939 0.155958 0.0521811 0.42128 -0.182871 -0.420516 -0.362167 -0.0154242 0.231408 -0.490702 0.248558 0.119676 -0.448594 0.107608 0.186923 -0.00243074 0.506629 0.260291 0.084175 0.253061 -0.464057 -0.193306 -0.0358997 0.465469 -0.120403 -0.337091 -0.249943 -0.142308 0.321419 0.0946047 -0.314974 0.0632784 0.338953 -0.447296 -0.0137547 0.277607 -0.0790814 -0.0493107 -0.171393 -0.189998 0.406862 -0.207385 0.00999804 0.121534 -0.348593 -0.243083 0.444938 0.478795 -0.00950501 0.387568 -0.01683 -0.503904 -0.214556 0.508493 0.392416 -0.467897 -0.458346 -0.446961 0.412055 

Neuron 41

-0.341162 0.0376746 0.451941 -0.20293 -0.17816 -0.130336 -0.412246 0.444835 -0.0422121 0.171602 -0.0381082 0.0806606 0.457167 0.0233085 0.00456046 -0.129824 0.184603 0.0266622 -0.0857119 -0.459227 0.306241 -0.392539 0.453469 0.0812174 0.166378 0.149985 -0.391177 0.312854 -0.436969 0.102281 0.0288979 -0.297713 -0.13443 0.232206 0.153283 0.171552 -0.400366 0.258407 0.0961331 0.446201 -0.282719 -0.417716 0.0946933 -0.133158 0.478378 -0.325814 0.306045 -0.236648 0.40934 0.0660354 -0.44551 -0.0199665 0.48579 0.18987 -0.394265 0.305629 -0.0167025 -0.490061 -0.294522 -0.437768 -0.0765174 -0.50735 -0.400535 0.480775 

Neuron 42

-0.0769017 0.0996927 0.422962 -0.19628 -0.446493 0.305949 0.111079 -0.286349 -0.0844008 -0.22352 -0.0203121 -0.299825 -0.112888 0.148387 0.485027 0.0888125 -0.266184 -0.0778534 0.186691 -0.287377 -0.229446 0.455909 -0.481094 -0.142285 -0.033978 -0.363008 0.183329 -0.28667 -0.221054 -0.385308 0.0695008 0.202136 0.208777 0.209938 0.281514 -0.23728 -0.1136 0.512487 -0.353909 -0.298165 -0.380529 -0.335962 0.345429 -0.435147 -0.219913 0.121273 0.0801493 -0.148598 0.456614 -0.137126 -0.00228459 -0.353483 -0.235269 0.0126584 0.0745178 0.358174 -0.202236 0.460479 -0.482113 0.354861 -0.269205 0.398405 -0.243727 0.451252 

Neuron 43

-0.256742 0.403406 -0.383483 -0.147064 0.0310705 -0.48071 -0.0899043 -0.190415 -0.214126 0.0987756 0.331912 0.430653 0.450736 0.378927 -0.380346 0.415896 0.00908999 0.346594 -0.367601 -0.377967 0.137584 -0.360959 0.199781 0.141649 0.358376 0.372267 -0.244378 0.105594 -0.4721 0.009895 0.452814 -0.116058 0.424614 0.0401099 0.453589 -0.205697 0.220421 0.0972634 -0.0614131 -0.30595 -0.322122 0.272975 0.059492 0.0459723 -0.164911 -0.468514 -0.0271357 0.263787 0.471254 -0.0162303 0.333927 0.279496 -0.373076 -0.474 -0.135929 0.365513 -0.138415 0.235157 0.154509 -0.170674 -0.145799 -0.269032 -0.369874 0.315075 

Neuron 44

-0.160283 -0.395953 0.414616 -0.323062 0.0345037 -0.262549 0.0128198 -0.317766 -0.318309 -0.420442 0.00928753 0.490133 0.0174696 0.0320217 -0.135044 -0.147525 -0.168884 -0.2328 0.106286 -0.0638437 0.491851 -0.0202536 0.362867 0.434811 0.307648 -0.0351341 -0.466458 -0.230639 0.208499 -0.376061 0.452138 0.39873 0.0994731 0.423633 0.319852 0.404768 0.456858 -0.437555 -0.137275 -0.311479 -0.231152 -0.206248 -0.199206 0.0446666 -0.261754 -0.499491 -0.359254 -0.463208 -0.385113 0.110266 -0.305764 -0.357173 -0.359022 0.11003 0.0290842 -0.114547 0.0987924 -0.0523246 0.199392 0.225622 -0.189072 -0.36046 0.380484 -0.377828 

Neuron 45

0.090972 0.477293 0.115169 -0.389266 0.131791 -0.366918 0.432214 0.366494 -0.471787 0.10515 0.192468 -0.443802 0.104517 -0.278574 0.30312 -0.350787 -0.187699 -0.438367 -0.360123 -0.00894554 0.302397 0.153862 -0.00932755 -0.383638 0.00860813 0.429117 -0.0744243 -0.275281 -0.0354056 -0.287492 0.309473 -0.235624 -0.22948 0.137146 -0.272197 -0.294203 -0.158977 -0.385489 -0.15115 -0.480228 0.345455 0.37296 -0.265727 0.210166 0.00252374 -0.255445 0.0367579 0.457808 -0.375079 -0.215801 0.0615201 -0.305609 -0.40623 0.400881 0.313181 0.0902917 -0.49482 0.312559 -0.267185 -0.484838 0.352709 0.392112 0.119898 0.156739 

Neuron 46

-0.500607 0.370004 -0.25228 -0.412169 -0.242529 0.359666 -0.0521118 0.0153125 0.0976986 -0.0135862 0.25781 -0.495629 -0.238844 -0.337485 0.368987 0.0534453 0.325104 0.467587 -0.000729875 0.191968 0.120346 0.187266 -0.476687 -0.232939 -0.330285 -0.074437 0.493505 -0.266811 -0.365564 -0.0880397 -0.30656 -0.381509 -0.165983 -0.0732682 0.183467 -0.0337604 -0.195383 0.140639 -0.110856 0.26165 -0.0302609 -0.0696158 0.152678 0.0684744 -0.424928 -0.0670608 -0.0310736 0.103549 0.125565 -0.0214014 0.474527 -0.268626 -0.355331 0.00984726 -0.0725405 0.474502 0.48631 -0.0733433 0.321242 0.165598 0.0375136 -0.311499 -0.200505 0.288425 

Neuron 47

0.443751 -0.304125 -0.465154 -0.356837 -0.186815 0.23094 -0.169527 -0.0140762 0.493406 0.269666 -0.0509342 -0.4752 0.162105 0.158846 -0.332065 -0.386193 -0.255569 0.274397 0.0266147 -0.0572742 0.0308037 -0.341048 0.150032 0.0982906 -0.362773 0.335824 0.412927 0.100946 0.208266 -0.305289 -0.43425 -0.00564888 -0.12248 0.19745 0.341769 -0.0845661 -0.258372 0.405696 -0.264869 -0.322452 0.271742 0.428559 0.315343 0.0584038 0.0516365 -0.0100955 -0.462029 0.0308975 0.283798 0.0958582 0.418928 -0.340985 -0.463339 0.214102 0.0144567 -0.0919023 -0.445175 -0.48369 -0.429213 -0.444011 -0.386692 0.471373 -0.112921 -0.258233 

Neuron 48

-0.480419 -0.13548 -0.0773773 0.316836 0.448588 -0.179981 0.0432745 -0.172275 0.405372 0.149664 0.0366023 -0.131634 -0.271309 -0.346211 0.415026 -0.446185 -0.281696 0.105108 -0.273958 0.0663455 -0.315612 -0.0796586 -0.317999 0.140189 0.27392 0.195433 -0.461795 -0.258684 0.0391164 0.325802 -0.036438 0.149631 0.465282 0.227905 0.404534 -0.155894 0.0632288 0.470595 0.459096 0.0928564 0.140616 -0.470138 0.00298481 0.055255 0.247465 -0.204048 -0.117315 -0.0057315 -0.0548515 -0.191866 0.431621 -0.49267 -0.182568 0.249277 0.488383 -0.0694392 -0.410331 -0.487712 0.372386 -0.0479193 -0.0226995 -0.0683705 -0.150068 0.1703 

Neuron 49

-0.481773 0.0550346 -0.18372 -0.098198 0.28974 0.00137487 0.03927 -0.209235 0.0638818 0.368149 -0.120636 -0.166522 -0.345622 0.364118 0.488951 -0.3829 -0.229267 -0.487629 0.0795762 0.370438 0.118656 -0.403758 0.301867 0.415695 0.474578 0.256032 -0.296566 0.346168 -0.327108 0.492006 0.165237 -0.150794 0.273474 -0.270477 0.0521704 0.0565166 -0.191431 -0.403739 0.0505947 -0.301828 -0.100539 0.430795 -0.360843 -0.00433478 -0.400713 -0.131413 0.0726982 0.253521 -0.124878 0.186987 -0.387352 -0.0548121 0.422706 0.0493467 0.427166 0.222811 0.161533 0.204768 -0.470849 0.283934 -0.238306 0.351881 -0.36247 0.287486 

Neuron 50

-0.380617 -0.0367597 0.252078 0.00119983 -0.487474 0.0130155 0.107931 -0.485711 -0.214335 -0.0636815 -0.310729 0.434926 0.428566 0.277851 -0.0682775 -0.00263007 -0.430844 -0.422128 0.125029 0.445171 -0.461763 0.209612 -0.0707571 0.012155 -0.101292 -0.422885 -0.234004 -0.135038 -0.252591 -0.131041 0.370045 -0.324349 -0.0189015 -0.405447 -0.428847 0.459203 -0.245729 -0.107552 -0.30834 0.109783 0.488913 -0.302508 0.0773183 -0.0466483 -0.330298 -0.12977 -0.501089 0.261057 -0.154936 -0.40009 -0.032868 0.193126 0.461577 -0.282478 0.148546 -0.322998 0.401208 0.314263 0.350056 -0.255056 -0.488493 0.06282 -0.0389121 -0.237023 

Neuron 51

0.0125429 -0.0530954 0.400475 -0.448699 -0.125767 0.414108 0.0269199 0.129308 -0.464609 0.477027 -0.433451 -0.147234 0.0421082 0.347991 -0.0509305 0.461625 -0.0450254 0.357019 -0.481902 0.367624 0.347259 -0.492421 -0.395966 -0.145564 -0.493871 0.127153 0.156877 0.243216 0.139719 -0.245243 0.0989026 -0.0124816 -0.459027 -0.358164 0.252906 -0.00725632 0.400821 -0.202623 0.371927 0.4685 -0.388604 0.0729831 -0.360452 0.219122 -0.0489808 0.275755 0.371588 0.231211 0.206725 -0.0884326 0.32236 0.313695 0.342158 0.0229476 -0.0987554 0.0867778 -0.0594975 0.237509 0.240324 -0.229445 0.460217 0.239893 0.187073 -0.0743965 

Neuron 52

-0.0870071 0.344989 -0.463257 -0.387869 0.391589 0.184867 -0.0879202 -0.213742 0.367542 -0.249958 0.202898 0.161227 -0.0780108 -0.480886 0.112883 -0.0176675 -0.17598 -0.375726 0.0149232 -0.0952283 -0.074766 -0.0176389 0.290336 -0.166168 0.35394 -0.450029 -0.498528 -0.100578 0.0569939 0.107275 0.321804 -0.0699427 -0.139815 -0.0739804 0.296921 -0.400449 -0.0170176 -0.0228641 -0.0265454 0.0691291 -0.487003 -0.418178 -0.171876 -0.119238 -0.25854 0.136373 0.442878 -0.306517 -0.0663523 -0.439852 0.111657 0.0918624 0.366201 0.385004 0.298266 0.314734 -0.448158 0.296018 -0.41347 -0.357508 -0.0929526 -0.285436 -0.422374 -0.189583 

Neuron 53

0.274475 0.108748 -0.268491 0.470521 0.0544646 0.385974 0.0627275 0.260733 0.135225 -0.278948 -0.275664 -0.0832392 -0.000559068 -0.396249 0.24424 -0.0603662 0.426089 0.281586 -0.381075 0.274786 0.327872 -0.452939 0.458102 0.31604 -0.323017 0.061559 -0.37832 -0.424226 0.039434 -0.232305 -0.353836 0.0789837 0.478321 0.140155 -0.420574 0.415817 -0.355551 0.262175 0.369311 0.00975272 -0.0860679 0.456157 -0.363998 0.279604 0.298831 0.454016 -0.349316 0.0543085 -0.237198 0.410738 0.269287 -0.0881422 -0.406678 -0.0451047 -0.0743004 0.233423 0.14811 0.291614 0.164819 0.121247 -0.204436 0.0500675 0.485106 0.184372 

Neuron 54

-0.263149 0.249331 -0.49104 0.0973922 -0.129986 0.324905 -0.314589 -0.29094 0.164836 0.400852 0.114584 -0.194192 0.21972 -0.173304 0.272741 -0.03471 -0.370165 -0.359213 -0.291586 0.320126 0.35472 -0.222985 0.288057 0.371225 0.183691 0.288704 0.24512 -0.265766 0.278519 0.0692135 0.271757 0.42033 0.482625 0.478456 0.412228 0.314702 0.196904 0.364248 -0.0811322 0.410694 -0.467714 0.129886 -0.00426426 0.330622 -0.23228 0.0658061 0.00364611 0.280092 -0.498422 0.025929 -0.211571 0.129726 0.309428 -0.436704 0.30814 -0.088175 0.0426112 0.166895 0.00159804 -0.141759 0.448683 0.00950933 -0.176645 0.12658 

Neuron 55

0.424671 0.449752 -0.0220782 -0.0680651 0.0293061 -0.451798 -0.372451 0.213588 -0.227546 -0.365666 0.25973 0.288174 0.346757 -0.0478263 0.184132 -0.28858 -0.159698 -0.043668 0.0712384 0.303589 0.419091 -0.336582 0.0728561 0.492865 -0.412632 -0.110957 0.150166 -0.158331 -0.0617773 -0.291551 -0.0915503 0.31333 0.140295 -0.0642262 -0.450004 -0.216355 -0.273406 -0.136383 -0.196346 0.0128927 -0.312617 -0.160722 -0.252672 0.337318 0.296486 0.0351613 -0.0437981 -0.115042 0.485547 -0.416453 -0.333634 -0.38938 -0.317917 -0.232083 0.388116 0.0577885 0.250574 0.39988 -0.216255 0.400944 -0.336601 -0.260532 0.246166 0.311853 

Neuron 56

0.310724 0.331387 -0.38175 -0.0683388 0.42924 0.240154 0.265349 -0.281202 -0.162844 0.0881824 0.0808811 0.367864 -0.305219 0.182191 0.0855565 -0.0525083 0.493644 -0.320212 0.193316 0.0694533 0.301359 -0.061 -0.22711 -0.0348698 -0.0564095 -0.0742373 0.293677 -0.164654 -0.344177 0.415491 0.164434 -0.365545 0.278315 -0.35397 -0.172937 0.45285 0.0427729 -0.116283 -0.365239 0.422971 -0.120472 0.230003 -0.341581 0.0535185 0.485891 0.366185 0.46574 -0.307392 -0.329543 0.365555 -0.113719 -0.274808 0.308468 0.418075 -0.415003 0.0469305 -0.239437 -0.219111 0.403183 0.296292 -0.226228 -0.207798 -0.453697 -0.280128 

Neuron 57

-0.114093 0.432158 0.27224 -0.465001 -0.27173 0.0339049 -0.160939 0.0988387 0.182779 -0.0370099 -0.0246886 0.0582323 -0.289565 0.273404 0.108702 -0.0528107 0.411083 0.0671008 -0.236997 -0.20597 0.265875 -0.440989 0.293451 0.0350252 -0.331806 0.338745 0.292024 0.0520792 0.295577 -0.231667 0.376711 0.3834 -0.198945 0.328432 -0.0477717 0.101171 0.38867 0.38272 0.36824 0.00674768 0.408329 -0.222093 0.278888 0.270617 0.263561 -0.323707 0.463608 -0.147334 -0.240424 0.198386 0.269203 0.49523 0.332903 0.102341 0.0412705 -0.365919 0.00267072 -0.113233 -0.100987 -0.283284 -0.161451 0.489527 0.485848 -0.360032 

Neuron 58

-0.0571596 0.319157 0.0660654 0.360828 0.444422 0.408209 -0.227475 -0.174719 0.49649 -0.494342 -0.404018 -0.324542 0.422475 -0.462286 0.363133 0.169705 0.223907 0.198223 -0.472155 0.491102 -0.0545128 -0.196668 -0.404512 0.361968 -0.40914 -0.41534 0.388348 -0.0333314 -0.201138 0.47805 -0.407866 -0.00233064 -0.17099 0.173037 0.229006 -0.0982521 -0.322399 0.443989 0.12528 -0.426223 0.469843 -0.346223 0.0269101 0.278675 -0.30374 0.0349519 0.43641 -0.262193 0.325969 -0.433534 -0.407152 0.000956245 0.0716097 -0.455523 0.0190366 -0.0517675 -0.0562457 -0.322212 -0.416189 0.112816 0.0949618 0.0230189 -0.122082 0.168077 

Neuron 59

-0.126969 0.0376978 -0.436472 0.205868 0.0187651 0.383202 0.398845 0.405006 0.00701475 -0.156326 -0.38987 0.415871 -0.443919 0.0468147 -0.21155 0.49442 -0.292722 0.260098 0.48699 -0.200446 0.102772 0.351919 -0.260326 -0.287839 0.268247 0.439316 -0.412542 0.449782 0.415881 -0.34498 -0.052469 0.150934 -0.250612 -0.0493051 0.342134 0.225027 0.00730572 -0.232056 -0.260488 -0.0270555 0.173938 0.332152 0.499943 0.449449 -0.0803817 0.0863914 -0.0245107 0.0881901 0.170507 -0.392923 0.131326 0.184856 -0.196807 0.249129 0.201543 0.35966 -0.183541 0.237802 -0.216351 -0.224123 0.157071 -0.149633 0.132773 -0.477327 

Neuron 60

-0.37477 -0.0127174 0.14847 -0.174068 -0.203717 -0.131228 -0.350154 0.0743332 0.284135 0.314247 0.132738 -0.0902755 0.243382 -0.243555 -0.0366649 0.159727 0.00762988 -0.430388 0.35953 -0.0236849 -0.190047 0.349065 0.0395324 -0.141377 -0.271471 -0.0915143 0.492715 0.0957486 0.12416 0.372941 -0.390304 -0.437772 0.204996 -0.356698 -0.0945275 0.29865 0.301311 -0.321879 -0.170784 0.106105 0.382727 -0.402842 0.0702881 -0.444025 0.021615 0.390476 0.242049 0.209202 0.0141947 -0.414748 0.331189 0.255806 -0.0429158 0.447818 0.00797876 -0.121193 -0.373297 -0.0824659 0.403293 -0.0718633 0.454887 -0.453326 -0.232038 -0.0489929 

Neuron 61

-0.371775 -0.389052 -0.00323976 0.270081 -0.325201 0.285038 0.307865 0.02135 -0.255561 0.14162 -0.296684 0.0738589 -0.15615 -0.496005 0.249963 0.11281 0.0157178 0.408812 0.215702 0.359987 0.13154 -0.0252986 -0.371615 0.229006 -0.483449 -0.485518 -0.318999 -0.399045 0.0263868 -0.270099 -0.161189 -0.413996 0.438694 -0.448356 -0.0122132 -0.314718 -0.0165022 -0.142402 0.0869013 -0.158148 -0.00342502 -0.33006 -0.207174 0.48029 -0.46698 -0.030536 0.358357 -0.275773 0.0351213 -0.179323 0.352585 0.261772 -0.150056 0.265086 0.188185 0.0410948 0.0623543 -0.108347 -0.180465 0.490132 -0.0707715 -0.251647 0.0202875 0.0682823 

Neuron 62

0.215121 -0.245892 -0.222714 0.132732 -0.307878 -0.0221621 0.442515 -0.326712 0.407989 0.321656 0.405885 0.205033 0.106335 0.0804848 -0.198952 -0.357346 0.0627931 -0.100921 -0.267233 0.454507 0.360678 -0.198707 0.147773 -0.150644 0.263672 0.495646 0.311513 0.103927 0.499347 0.283307 -0.30725 0.175575 0.343581 0.250022 -0.018121 -0.253237 0.278641 0.457627 0.0974988 -0.3585 -0.437393 0.0155103 0.0312174 0.44781 -0.412807 0.11095 0.431799 -0.455618 -0.28107 0.312446 -0.279538 0.21407 -0.102934 -0.0149044 0.478596 -0.130255 0.00731705 -0.231936 -0.094 0.356826 -0.371239 -0.328113 0.330304 0.230812 

Neuron 63

0.00951027 0.491223 0.401734 0.206293 -0.160491 0.493149 -0.31256 -0.234833 0.394635 -0.233253 0.400913 0.394326 -0.315446 -0.394657 -0.317586 -0.133471 -0.102306 0.334294 -0.489092 0.230248 0.0773807 0.466115 0.391694 0.211613 -0.122769 0.108909 -0.26841 0.437498 0.259757 -0.2379 0.26957 -0.385052 -0.115143 0.0695752 -0.137048 -0.2016 -0.446748 -0.366712 -0.491551 -0.0834436 -0.129284 -0.339372 -0.3844 -0.0634142 0.306444 -0.213703 0.184035 -0.33155 0.37588 0.0256259 -0.301039 -0.40034 -0.188605 -0.308328 -0.318878 -0.45598 -0.0224396 0.205961 -0.366578 -0.329012 0.268713 0.270969 -0.0941387 0.249423 

Neuron 64

-0.296679 -0.12169 0.159768 -0.150409 -0.476322 -0.392101 -0.209134 -0.408522 0.0386147 -0.108685 -0.111202 -0.289384 0.502134 -0.206773 -0.0720609 -0.26231 0.233659 0.00508205 -0.494448 -0.430944 0.108157 0.0528072 -0.0443615 0.434988 -0.213665 0.410394 -0.0645912 0.352106 -0.311299 -0.234039 0.310105 0.355661 -0.302073 0.0958684 -0.0804623 -0.129528 -0.43834 -0.258416 -0.181876 0.260069 -0.163159 0.346731 -0.299555 0.223878 0.325369 -0.496344 0.196667 -0.413432 0.412773 0.401998 0.0989265 0.100734 -0.0668541 -0.487591 0.271257 -0.0482287 -0.212661 0.00314726 0.145644 0.429443 0.0778342 0.283684 -0.00452367 -0.424961 

Neuron 65

-0.154765 -0.194959 -0.0465824 0.364048 0.484527 0.188811 -0.473435 -0.195558 -0.467686 0.0757182 0.452801 -0.333508 0.28733 0.276256 -0.179718 -0.148804 0.164589 -0.353066 -0.039653 0.133015 -0.350464 -0.21668 0.153365 0.494547 -0.0632912 0.465333 -0.18831 -0.00134878 0.00685512 0.249616 0.0540172 0.40987 0.142689 -0.173324 0.18925 -0.443982 -0.369759 -0.0121736 -0.0778963 0.0505434 0.0913543 0.0963881 0.032572 -0.172055 0.492851 -0.107894 0.0875725 -0.195221 -0.421984 -0.0731306 0.276431 0.204745 0.226586 0.329537 0.0815693 0.101352 0.231756 0.0846513 -0.228717 -0.11333 -0.34374 0.436689 0.0746319 -0.0841532 

Neuron 66

-0.299138 0.324969 0.318535 -0.365894 -0.0226164 -0.208155 -0.403334 -0.0855802 -0.39011 0.551196 0.348405 0.0406105 -0.363072 0.243456 -0.386951 0.0327238 -0.182226 -0.26982 0.37945 0.332175 -0.131691 -0.12014 -0.325553 -0.268643 0.438776 0.41698 0.181617 0.433535 0.241951 -0.116436 0.0157198 0.124157 0.0194452 0.108164 -0.453185 -0.344646 -0.440706 0.440145 0.257266 0.481904 0.144341 0.0125287 -0.0786378 0.321287 0.193971 -0.38516 0.274245 -0.290553 0.334145 -0.216116 0.469703 -0.348552 -0.524717 0.422298 0.0453154 0.413695 -0.355473 0.231408 0.336364 -0.480172 -0.367721 0.189656 -0.324409 -0.0982159 

Neuron 67

-0.501195 -0.384344 -0.010443 0.382061 0.23963 0.33918 -0.412266 0.375815 0.572613 -0.0469922 -0.123405 0.397526 0.332793 0.513362 -0.46961 0.0725717 0.329608 -0.309686 -0.36963 -0.0762013 -0.233139 0.50091 -0.0574773 -0.407172 0.0800609 -0.272175 -0.243641 0.3344 -0.31865 0.169699 -0.239654 -0.250661 -0.135746 -0.0762068 -0.399136 0.455457 -0.340536 -0.0116884 -0.1739 -0.0953004 -0.201509 -0.0893811 0.318632 0.0200957 0.299492 0.111238 -0.261618 -0.317439 0.227572 0.341279 0.0287164 0.275342 -0.415437 -0.160489 -0.419386 -0.163399 -0.393154 -0.326188 -0.330197 0.418077 0.389405 0.0750291 -0.0623046 0.400306 

Neuron 68

0.249796 -0.395543 0.0754155 0.207457 0.140814 0.160188 0.209051 -0.488194 0.400866 0.120491 -0.27097 -0.168766 0.128543 -0.25438 -0.29533 -0.26474 -0.374426 0.266706 0.113229 0.181365 0.133296 0.252287 0.275951 -0.267588 0.159197 -0.414531 -0.344128 -0.285987 0.18442 -0.143479 -0.413759 0.395222 -0.486979 -0.131396 0.30296 0.400618 -0.0214964 0.498085 -0.281865 0.562002 -0.388933 0.00737294 -0.277773 0.335705 -0.266496 -0.472232 0.0648196 -0.189281 0.0105108 0.276288 -0.34095 0.256141 0.126818 0.143376 0.00224481 -0.0515815 -0.303339 0.0275748 0.0287605 -0.0899212 0.0956222 -0.218803 -0.41812 -0.421154 

Neuron 69

-0.16841 0.142759 -0.315523 0.246819 -0.339186 -0.242948 -0.168915 0.0457705 0.477421 -0.0693628 0.327722 -0.386543 -0.11194 -0.396694 -0.215698 0.205363 0.413282 -0.164987 -0.388007 -0.406811 0.0891243 0.412885 -0.236351 -0.380372 -0.222617 -0.179272 -0.0671128 -0.467508 -0.406996 0.323594 0.445699 0.317475 0.415293 0.118738 0.226212 -0.279513 -0.0307742 0.0332362 0.199248 0.134291 0.324883 0.142174 -0.124361 -0.11354 0.0112514 -0.10883 -0.311134 -0.273461 -0.16453 0.259078 -0.434583 -0.395571 -0.369899 0.181012 -0.0662388 -0.0877038 -0.446453 0.39437 0.011255 -0.495703 0.0657665 0.377012 0.304263 -0.125869 

Neuron 70

-0.340736 0.0745706 -0.185807 -0.022207 0.26379 0.0901409 0.444798 0.108293 -0.242975 0.132695 0.193641 -0.0485129 0.487226 -0.206291 -0.132628 0.237378 -0.501037 -0.282544 0.0704602 0.217787 0.358169 0.313049 -0.145207 0.243709 0.265403 -0.385284 0.426509 0.43329 -0.0665041 -0.000558823 -0.134997 -0.325824 -0.0849044 0.379339 -0.0775765 -0.34551 0.0736352 0.057583 -0.558426 0.0027994 0.163231 -0.135409 -0.0555272 -0.0816565 0.148356 0.374426 0.115596 0.0784015 0.195626 -0.0612519 -0.0822843 0.0554723 0.36355 -0.511594 0.422563 -0.154691 0.283052 0.425976 -0.0474385 -0.206859 0.375539 -0.506239 0.335376 -0.471052 

Neuron 71

0.408744 -0.10336 -0.217946 0.2133 0.538318 -0.000930669 -0.408101 -0.220356 -0.301142 -0.100343 -0.0648839 -0.223677 0.000404693 0.416095 0.0912772 -0.467648 0.151862 -0.479718 0.206637 -0.228023 -0.062851 0.504444 -0.0529535 -0.326697 0.287423 0.166076 -0.0801108 0.291853 -0.327891 0.191152 -0.170242 0.213074 -0.349772 0.0794105 0.359457 0.410988 -0.554044 0.479282 0.281574 -0.29309 0.34881 0.0810629 0.622508 -0.295164 0.181147 0.3679 -0.0476866 -0.395762 -0.0198755 0.375708 -0.146548 0.254201 -0.298662 0.271305 -0.533734 -0.454163 -0.267583 0.286971 0.243365 0.265667 -0.248513 0.0223126 0.196297 -0.349031 

Neuron 72

-0.0211883 0.07704 0.521537 -0.319081 0.390919 0.313141 0.17236 -0.505808 0.240767 0.569073 0.225243 0.265373 -0.334837 0.365842 -0.329549 -0.431405 -0.169517 0.11683 0.148538 -0.30608 -0.317709 -0.0459745 0.362096 0.325505 -0.0325315 -0.170349 -0.0101764 0.208477 -0.45145 -0.313021 0.186466 -0.280006 -0.521126 0.185962 0.362882 0.222572 0.071969 -0.126265 0.0663354 0.175157 -0.34982 0.180455 -0.123373 -0.345389 0.340475 0.364479 -0.488846 -0.158845 0.0409179 -0.274314 -0.461419 0.171275 -0.47292 -0.304012 -0.218933 0.315234 -0.36311 0.308598 0.123399 -0.147898 -0.106341 0.140768 -0.217792 -0.348506 

Neuron 73

0.0284094 -0.0146112 0.0479779 0.250085 0.464192 0.517996 0.462909 -0.140832 0.14206 -0.346791 0.480393 -0.484572 -0.220718 0.114996 0.0524969 0.253261 -0.457182 -0.435965 -0.181397 -0.0658057 -0.227528 -0.127161 -0.0856328 0.510852 0.102474 -0.393547 -0.126913 0.333781 0.535475 -0.591051 0.530123 -0.187591 -0.168274 -0.451728 -0.0598753 0.228162 -0.315629 0.382487 0.184766 -0.0683721 -0.0663656 0.564686 0.275162 -0.37597 0.501384 0.201026 -0.534196 0.11047 -0.105331 -0.235701 -0.368524 0.512271 0.0182963 0.263926 -0.145093 -0.0257532 0.259161 0.438501 -0.235133 -0.108799 0.53817 -0.488125 0.37654 0.0236064 

Neuron 74

0.311341 0.28867 0.334546 -0.323247 0.290154 -0.305421 0.327335 0.412004 -0.310255 -0.17828 0.176797 -0.184357 -0.112419 0.0609901 0.205966 0.103749 -0.223461 0.205213 -0.281077 -0.303818 -0.245322 0.180968 0.407407 0.417443 -0.44895 0.422339 0.381389 0.203902 -0.26588 0.157694 0.188694 0.132562 -0.470641 0.37351 0.197368 -0.32185 -0.291719 0.13188 0.2032 0.466094 0.111763 0.28331 0.122557 0.048334 -0.368748 -0.0766752 -0.521983 0.461833 0.226164 0.399042 0.391141 0.427412 0.362278 -0.037632 0.509625 0.198269 -0.120229 0.143929 0.37961 0.149119 0.567067 -0.0871624 -0.173333 -0.50982 

Neuron 75

0.0752475 -0.312893 0.048397 -0.401177 0.424112 -0.0641594 -0.178912 -0.293776 0.528978 0.0904988 0.229194 0.40402 -0.0910564 0.101399 0.0208942 0.428339 0.400012 -0.0131922 0.458855 -0.384678 0.182588 -0.17985 -0.288412 -0.327214 0.0400318 0.317195 -0.10787 0.43929 0.435926 -0.0368795 -0.129147 0.29298 0.296914 0.00477914 0.360401 0.229655 -0.221355 -0.188531 -0.318453 -0.0566731 0.033167 0.410545 0.123144 0.279943 0.0545123 0.234835 -0.0794477 0.0263729 -0.388661 0.312244 0.320674 -0.0454177 -0.456211 -0.0647295 0.443659 0.392837 0.249396 0.16705 -0.0886777 -0.366409 0.409436 0.0308723 0.258902 0.184334 

Neuron 76

-0.0152645 -0.28127 -0.367946 0.162561 0.435644 0.32199 -0.0173547 -0.285936 0.2334 -0.116314 0.433246 0.082438 0.451319 -0.413371 -0.142597 0.278985 -0.262316 0.168548 -0.322141 0.383203 0.427249 0.516115 -0.215477 0.537819 0.0479204 -0.42453 -0.0585043 -0.470759 -0.247251 -0.0641303 0.356432 0.471302 0.0500398 -0.249443 0.393717 -0.176715 -0.446368 -0.196291 0.068716 0.413914 0.344634 0.120289 -0.119898 -0.0916776 0.350055 -0.332795 -0.453106 0.233332 -0.317395 0.148848 0.477971 -0.405034 -0.425021 -0.239552 -0.354788 0.074447 0.0201337 0.499958 -0.360373 0.411682 0.372434 0.344502 -0.00307338 0.163822 

Neuron 77

-0.431888 -0.422408 -0.015936 -0.497017 0.0538217 -0.0905363 0.425111 0.436724 -0.11398 0.173733 0.331225 0.121313 0.0404125 0.473781 0.156182 -0.210467 0.0485389 -0.324138 0.383147 -0.27357 -0.0108279 -0.340782 0.04736 0.339456 -0.115498 -0.284201 0.0852857 -0.267134 -0.366807 0.116494 0.0140577 -0.259675 0.365059 -0.102276 0.418258 0.0849194 -0.483322 0.227094 -0.00253968 0.312443 -0.160786 0.352502 -0.212083 0.0902945 -0.228634 -0.0530235 -0.405116 -0.182643 -0.266189 0.0395974 0.414518 -0.303914 -0.348938 0.405677 0.485863 0.00496272 0.153706 -0.341712 0.479795 0.207448 0.413228 -0.244034 0.0841567 -0.465574 

Neuron 78

0.398204 0.0569258 -0.227789 0.384189 0.146907 -0.186198 -0.286668 0.101674 0.313565 0.183757 0.133012 -0.0847762 0.0638347 -0.281641 -0.411414 0.428133 0.453267 0.257661 0.0509031 -0.11131 -0.385358 -0.278676 -0.0614178 0.232118 -0.388657 0.198082 0.326762 0.216643 -0.268811 0.121177 0.270423 0.139816 0.470283 -0.180627 -0.376832 -0.0120037 0.108838 -0.0716042 -0.263377 -0.086904 -0.133459 0.356056 0.178723 0.492636 0.114371 0.413046 -0.207419 -0.47274 -0.483764 0.301734 -0.449421 -0.156296 0.303499 0.388652 -0.462224 -0.0336354 -0.352241 0.471545 0.381592 -0.171803 0.0711485 -0.224585 -0.194286 0.304082 

Neuron 79

0.426174 -0.0577769 -0.099937 -0.114769 0.0155769 -0.0201076 -0.059533 -0.0169917 -0.316591 0.393661 0.181895 -0.272171 0.451596 -0.125776 -0.0858344 -0.295233 -0.225954 -0.277383 0.3878 0.194964 0.334542 0.293768 -0.498046 0.0431549 -0.133212 -0.231319 0.397648 0.479602 -0.16223 -0.346583 0.00448875 0.231008 0.123224 0.123821 -0.391532 0.341597 0.0297755 0.251433 -0.495699 -0.311793 -0.3537 -0.282055 0.270386 -0.00742919 0.063977 0.0566784 0.137615 0.455444 0.33267 0.0221969 -0.239606 -0.413576 -0.327443 -0.317352 -0.0986928 0.386066 -0.474482 0.362823 0.332139 0.257012 -0.47145 -0.432131 0.00705678 -0.443191 

Neuron 80

0.218641 -0.185693 0.398444 -0.349459 0.424104 -0.279082 -0.361578 0.317875 -0.0242555 -0.490255 0.367702 -0.176974 0.480283 0.34364 0.27009 -0.27497 0.0768889 0.26439 0.0562406 0.329141 -0.401028 0.119842 -0.220709 -0.206551 -0.0897822 -0.403019 0.497607 0.279327 -0.140982 0.092258 -0.129648 -0.0274374 -0.0244983 0.278869 -0.311335 0.130295 -0.283101 0.12164 -0.126193 -0.455943 0.0445642 0.103397 -0.0249314 0.266539 -0.251482 -0.246944 -0.0346457 -0.387688 0.421213 -0.204616 0.249967 -0.457324 0.00522669 -0.0922196 -0.106835 -0.0134353 0.109639 0.346722 0.396384 0.0930608 0.237682 -0.231583 0.283839 -0.284028 

Neuron 81

-0.12247 0.465383 -0.14194 -0.45603 -0.157561 0.316222 0.190878 0.0941402 0.233693 0.352738 0.00362103 -0.00791681 0.201933 0.422331 0.23297 -0.13921 -0.389216 0.0818371 -0.171096 0.472742 -0.450796 -0.430987 -0.445057 -0.196483 0.061306 -0.279432 -0.16524 -0.268652 0.080862 0.407973 0.183541 -0.337273 -0.375291 -0.109258 0.181981 0.245288 0.430325 -0.222567 0.0367727 0.151327 0.0758416 -0.0724695 -0.0821097 -0.385282 0.046221 -0.495477 0.419833 -0.331788 0.0628159 0.485939 -0.26402 0.253776 0.463342 -0.400238 -0.0562431 -0.433016 -0.178816 -0.4818 -0.201465 0.437349 -0.170214 0.206309 -0.466341 -0.384643 

Neuron 82

-0.487159 -0.0830082 0.0251152 0.385387 0.0227392 0.445163 -0.141039 -0.0836453 -0.186297 -0.470897 -0.222325 -0.319782 0.0451624 -0.081817 0.483172 0.435887 0.300161 -0.395451 0.139723 -0.0884384 -0.262933 -0.316973 -0.262713 0.260508 0.0832655 0.437363 -0.363951 -0.284839 -0.318889 0.145757 -0.410827 -0.441208 0.0271358 0.360398 0.0905745 0.272416 0.078654 0.159287 0.374911 0.199642 0.21321 0.448937 -0.291277 0.17987 0.177148 -0.424843 -0.0476608 0.205518 0.186932 0.493165 -0.226113 -0.330969 -0.421016 0.34987 -0.0196721 -0.120284 0.018997 0.36789 0.439003 -0.415726 -0.426697 0.154244 0.198871 -0.366648 

Neuron 83

0.477694 -0.400079 -0.120596 0.147703 0.45143 0.190285 0.114491 0.249464 -0.253293 -0.0920708 -0.433843 0.405226 -0.374999 0.395451 0.349683 0.116158 0.260126 -0.0626127 -0.332276 0.433463 0.208363 -0.0385795 -0.405626 -0.361134 0.424907 0.41632 0.0912463 -0.423065 -0.452182 0.172234 -0.258677 0.413022 -0.332878 0.318037 0.247944 0.19459 0.471865 -0.360144 0.0557619 0.190755 0.0219884 -0.441681 -0.326328 0.40712 0.468752 0.322479 -0.0942926 0.223975 0.342062 0.0386577 -0.279849 -0.420432 -0.199386 -0.0815121 0.0267167 0.0269598 0.112966 -0.375524 -0.437702 -0.459527 -0.274685 0.375232 -0.477446 -0.428334 

Neuron 84

-0.00218157 0.334317 -0.134063 -0.195701 -0.145872 0.330736 -0.311916 -0.375579 -0.362842 -0.278388 0.131389 0.260437 0.172954 -0.155831 -0.0521751 0.0938654 -0.403604 -0.373544 -0.159448 0.160227 -0.0635495 -0.0756206 0.0442031 -0.0788419 -0.0950037 0.273242 0.37571 -0.443044 -0.234244 0.0650827 -0.154603 -0.410713 0.144759 -0.0367138 -0.0493561 0.471684 -0.407772 -0.41663 -0.299734 0.367367 0.332235 -0.12828 -0.00165683 0.15368 -0.0944357 -0.181436 -0.40251 0.00969703 -0.0219452 0.167451 0.351574 -0.103172 -0.00741866 0.314515 0.0554776 0.411465 0.498592 -0.165759 0.0908611 0.102086 -0.242767 -0.178082 -0.016619 -0.315696 

Neuron 85

0.104762 -0.257493 0.321302 0.126484 -0.177261 -0.230877 -0.341846 -0.411668 0.100084 0.106107 0.347324 0.46788 -0.333078 -0.0463783 -0.479499 0.067474 0.0358538 -0.405697 0.442825 -0.442952 0.299772 0.260786 0.0221793 -0.232955 -0.280105 0.277562 -0.0223104 0.0293784 -0.236449 -0.000868182 0.408466 0.0927903 -0.474135 0.212816 -0.200418 -0.430225 0.21174 -0.29075 0.365532 0.489304 -0.266036 -0.26029 0.307433 0.0324139 -0.219878 -0.483505 -0.274145 0.45159 -0.131469 0.397896 0.435562 0.491052 0.11871 0.151392 0.449251 -0.437969 0.0598998 -0.263783 -0.404909 -0.302021 -0.0734503 -0.479477 0.432668 -0.147876 

Neuron 86

-0.350153 -0.0247194 -0.45812 0.373324 0.456667 0.207598 0.0959338 0.359806 0.251501 -0.0155569 -0.465641 -0.0326277 -0.374054 0.278888 0.26535 -0.26137 0.153912 -0.207931 0.300315 0.400044 -0.462641 0.393249 0.328749 0.284584 0.00544262 0.474052 0.394403 -0.26436 -0.092913 0.410783 0.0331801 -0.342331 0.450794 -0.498978 -0.328093 -0.255195 -0.062124 -0.117696 -0.109489 -0.178645 -0.484162 -0.314937 -0.142286 -0.40478 -0.140261 -0.363298 0.0445933 0.478857 0.154606 0.461498 0.403948 0.15965 0.230062 -0.34508 0.233932 -0.310855 0.452882 -0.412989 -0.110033 -0.326739 0.494495 -0.0195494 0.432861 0.0939863 

Neuron 87

-0.3729 0.0786415 -0.0245164 -0.183259 0.387692 0.16967 0.475537 -0.445065 -0.45309 0.365485 -0.257746 -0.0740518 0.189287 0.317764 0.268556 0.24994 -0.08027 0.373179 -0.107511 -0.307175 -0.409402 0.0651864 -0.475098 0.0724707 0.0244939 0.447025 -0.331258 0.237266 0.178699 0.236183 -0.00821727 -0.275937 0.34408 -0.452488 -0.162214 0.190297 -0.44136 0.361256 -0.429255 0.009709 0.443056 0.244276 0.171745 -0.42619 0.0242384 0.264521 0.0855215 0.219434 -0.203692 0.227858 -0.111171 -0.2011 -0.0338121 0.472446 0.346002 0.379107 0.332881 0.494486 0.0274151 -0.208868 0.48153 -0.0134675 0.214829 -0.050426 

Neuron 88

0.130951 0.255148 -0.372561 -0.432713 -0.0490864 -0.434652 -0.0116046 0.208568 -0.250222 -0.0795156 -0.114485 0.46513 0.127349 0.0398575 -0.293746 0.215635 0.141112 0.139688 -0.0872691 -0.37543 -0.0470634 0.191737 -0.141049 -0.486221 0.072305 0.128918 0.215832 -0.173314 -0.0479332 0.077177 0.011429 0.057115 0.405554 -0.0442586 -0.158396 -0.144722 -0.305313 0.332585 0.00691339 0.360505 0.0140135 0.151229 -0.201881 -0.00997782 -0.0459418 -0.3351 0.111815 -0.394746 -0.251197 0.176158 0.0633965 0.182029 -0.463449 -0.221501 0.317347 -0.330946 0.0589718 -0.00220797 -0.173996 -0.431077 0.0831393 -0.380899 -0.211954 0.194972 

Neuron 89

0.310467 0.188251 0.332452 -0.19337 0.223699 -0.110856 -0.25925 0.438599 0.313006 0.125062 -0.228273 0.0238173 0.437592 -0.43817 0.490876 -0.197112 -0.292784 0.150856 -0.0611219 0.181217 -0.0846594 0.309555 -0.42859 0.372518 0.0987876 -0.313603 -0.026174 -0.0829237 0.230461 0.1883 0.316967 -0.186236 0.416303 -0.160902 -0.195211 -0.491857 -0.403819 0.370188 0.384898 0.176535 0.110466 0.458261 -0.276927 0.427531 0.324955 -0.171817 -0.0595286 -0.214637 0.156418 0.231199 -0.187338 0.121565 -0.330455 0.232389 0.28276 0.453096 -0.10963 -0.212711 0.176014 0.342836 0.0268271 0.314535 0.348721 0.0905061 

Neuron 90

0.081073 -0.0364241 -0.167234 0.0884894 0.149754 -0.388873 0.36537 0.1728 0.458105 0.496604 0.374715 0.500551 -0.137328 -0.330517 0.161615 -0.486414 -0.169591 0.446267 -0.381342 0.321051 0.192605 0.33862 0.0870362 0.151086 0.343508 0.473432 0.489977 0.383429 0.0915052 0.11514 0.120518 -0.244711 -0.0830292 -0.138963 0.239245 -0.327095 0.442417 -0.115205 -0.411862 0.0808343 -0.11645 -0.274651 0.426866 -0.262924 0.484853 0.453946 -0.27368 0.0686586 -0.401346 -0.35152 -0.239523 -0.0170952 -0.313552 0.329017 -0.207245 0.192886 0.385724 0.266875 0.276039 -0.465183 -0.0881718 0.0155007 0.120672 -0.10236 

Neuron 91

-0.495168 0.156611 0.187402 0.311829 0.0479992 -0.0959767 -0.0368494 -0.449966 -0.40603 -0.011591 0.375609 -0.247697 0.392027 0.105189 0.12216 -0.167186 -0.223915 -0.241009 0.46286 0.0135358 0.187478 -0.0895021 -0.454835 -0.0627117 -0.216794 0.325397 0.37451 0.267641 0.495383 -0.119552 0.39774 -0.0224808 -0.164711 0.434088 0.127237 -0.102697 -0.378827 0.0479947 0.126488 0.0229985 0.4431 -0.0341317 0.371175 -0.470968 -0.275671 0.298726 -0.0362739 0.0915021 -0.309205 0.468159 -0.110793 -0.497827 -0.233224 -0.337193 0.145932 0.0102839 -0.082149 -0.333593 -0.339924 0.171552 -0.320027 -0.130868 0.383444 0.265635 

Neuron 92

-0.336 -0.446262 -0.308424 0.0269371 -0.11452 0.103027 0.437874 -0.33921 -0.343 -0.39328 -0.38143 -0.293851 -0.454892 0.263873 -0.267347 0.423052 0.216164 0.413973 -0.0948851 0.467522 0.0614848 0.151786 -0.105431 -0.473783 0.137107 -0.226592 -0.440349 -0.144336 -0.0751512 0.347477 0.0567833 0.428026 -0.266424 -0.478157 -0.244682 0.0476548 -0.197384 -0.132628 0.0881297 -0.218769 0.292673 -0.059491 0.0395269 -0.109627 0.356185 -0.35065 0.185546 -0.352272 -0.295012 0.0334479 -0.324308 -0.33943 0.341793 -0.43313 0.0458324 -0.0703539 -0.388842 -0.128356 0.269876 -0.0344246 -0.0167867 0.0765079 -0.34444 -0.486486 

Neuron 93

-0.336464 0.21735 0.0907311 -0.0967696 0.0399817 0.431812 0.136017 0.143471 -0.422729 -0.0525251 0.324259 0.446376 0.281834 -0.0292159 -0.234457 -0.00753256 -0.399568 0.471897 -0.528348 0.38999 0.155967 -0.0127252 0.451506 -0.407755 0.234497 -0.263969 -0.250535 0.466949 0.419186 0.138452 -0.195605 0.072598 -0.147906 0.0648873 0.152076 -0.221603 0.373105 -0.129314 0.207469 0.0346968 -0.250223 -0.163863 0.417323 -0.0425846 0.452792 -0.379239 0.476109 0.244136 0.328329 -0.223316 0.220676 0.322984 0.0381151 -0.37504 0.0111071 -0.0131646 0.296478 -0.111299 0.306376 0.21268 0.168894 0.37744 -0.168098 -0.211729 

Neuron 94

-0.533124 -0.108371 0.338115 0.0722258 -0.40227 0.0178347 0.142733 -0.22194 0.252554 0.486125 0.0245843 -0.308328 0.0268814 0.190722 -0.0681999 -0.511079 -0.210756 0.08123 0.278291 -0.167838 -0.361217 0.001188 0.0292141 -0.220224 -0.180827 0.169424 0.0488729 -0.457923 0.332391 0.122714 -0.20166 0.57754 0.208888 -0.362981 0.275175 0.212603 0.107637 -0.185751 0.187283 -0.417287 -0.575264 -0.192572 -0.237511 -0.094184 0.0859667 0.210351 -0.189698 0.451598 0.0150116 0.513754 0.224169 -0.46477 -0.318629 0.464384 0.340317 0.369204 0.290961 -0.0524812 -0.37674 0.228751 0.111322 0.470202 -0.446233 -0.547271 

Neuron 95

-0.208011 0.0733426 0.37644 0.302328 0.463969 -0.267847 -0.39621 0.0577078 0.464458 0.514109 0.119432 -0.349047 -0.436021 0.426918 -0.482405 -0.126813 -0.0370624 0.158363 -0.49915 0.109894 -0.50963 -0.470701 0.282087 0.216862 -0.208636 0.429029 0.146797 -0.254047 0.309236 0.18645 -0.278651 -0.183122 0.349784 -0.0219586 0.123255 -0.312697 -0.0376564 -0.0907256 -0.299725 0.312664 -0.0327884 0.326003 0.209861 0.189138 -0.472339 0.316432 -0.223715 0.487988 -0.398459 0.16752 0.158432 0.164333 -0.222383 0.00685271 -0.311601 0.0900272 -0.0361188 -0.0866803 -0.000999911 0.471327 -0.407111 -0.193355 -0.147782 0.291384 

Neuron 96

0.106018 -0.331038 -0.179593 -0.0215834 -0.123584 -0.322835 -0.293978 -0.287279 0.561026 0.212313 0.552562 0.0991939 0.248469 0.379627 -0.459045 -0.184673 0.146668 -0.380228 -0.356828 0.589346 -0.261737 0.257607 0.166542 0.360582 0.061061 0.10283 0.11802 0.293589 -0.347685 -0.671665 0.345494 0.531096 0.129093 0.0408002 -0.335928 0.16634 0.677778 0.100583 -0.349885 -0.0562272 -0.635357 0.441325 0.353386 -0.137872 0.102388 0.348289 0.0432026 -0.174639 0.146926 0.0733292 -0.42216 -0.452959 -0.0879993 0.0616568 -0.0120029 0.0909916 -0.479474 -0.501651 0.220675 -0.198469 -0.0454993 -0.143782 -0.456712 -0.445941 

Neuron 97

-0.585089 -0.0528529 0.334401 -0.110758 0.13432 -0.233102 0.321172 -0.365719 -0.0633591 0.510863 0.548372 0.205907 -0.165168 0.0210666 -0.0690352 -0.386675 -0.157162 0.0380732 -0.580013 -0.197442 -0.563085 0.0186179 0.507485 -0.512012 0.102888 0.0646372 0.189185 0.233074 0.162071 -0.668863 -0.444089 0.769511 0.308486 -0.175397 0.17707 -0.357292 0.0658296 0.103431 0.134427 0.588903 0.0117337 -0.325918 -0.0237228 0.130327 0.431712 0.0639547 0.155428 0.555705 0.336234 -0.25173 0.178957 0.0121667 0.142609 -0.070658 -0.573532 -0.0623835 -0.329722 0.295217 0.41539 0.39139 -0.358977 0.171022 0.175928 -0.479879 

Neuron 98

-0.404261 0.429223 0.109468 -0.409516 0.113376 0.587936 -0.0228469 0.0130469 0.422805 0.132004 0.220653 0.527984 0.312596 0.0305097 -0.00661163 0.308839 0.513514 -0.131595 -0.065033 -0.351556 0.169842 -0.438818 -0.23588 -0.35309 -0.229555 0.473732 -0.224736 0.0453324 -0.432214 -0.945952 0.568386 0.239521 -0.519437 -0.401286 0.548243 0.270487 -0.312513 0.425127 -0.334796 0.240512 0.0840626 0.034156 0.320029 -0.0333673 -0.254101 -0.190933 0.288431 0.11764 -0.0505006 0.376399 -0.016979 -0.535724 -0.232195 -0.435444 0.294388 -0.358314 -0.478188 -0.42482 0.068896 -0.432453 0.201916 -0.0385881 0.28544 -0.0181014 

Neuron 99

0.483402 -0.254094 -0.303001 0.250902 -0.104751 0.521994 0.222877 -0.818473 0.135013 0.553615 0.431452 0.022906 -0.0310499 0.266613 0.403598 -0.289738 0.20879 -0.427399 -0.184333 0.182886 0.461139 -0.0523322 0.131921 -0.247525 -0.1623 0.223378 0.0285929 0.0263496 0.304685 -0.316448 -0.25799 0.280172 -0.230177 0.147938 0.373669 -0.229018 0.321296 0.370214 -0.555302 0.0116636 -0.419483 0.53597 0.606995 0.0331277 -0.194525 0.284855 -0.37267 -0.00584729 -0.061232 0.403691 0.0101737 -0.186931 -0.425224 -0.245669 -0.398693 -0.326095 0.13322 -0.438876 0.377949 0.200342 -0.0383062 0.15955 -0.0712765 -0.294361 

Neuron 100

0.384128 -0.411577 0.0833031 -0.30096 0.70336 0.362259 -0.231397 -0.470751 0.480546 0.568356 0.240492 0.433256 0.0407116 0.61997 -0.321237 0.361485 0.40866 0.0692635 0.301731 0.0193646 -0.36323 0.140245 0.041671 0.0231432 0.0581905 -0.0584802 -0.45204 0.400217 0.54078 0.063868 0.368153 0.446283 0.0170711 0.171402 -0.122061 -0.113866 0.40289 0.509822 -0.261496 0.292842 -0.290541 0.508713 0.180426 0.168108 -0.295163 0.0406297 -0.355476 0.466423 -0.257507 -0.0732196 0.174907 -0.238005 0.379833 -0.134326 -0.240746 0.273361 0.0839819 -0.290119 0.100906 -0.00570974 0.335295 -0.388016 0.148547 0.239692 

Neuron 101

-0.0580841 -0.522858 -0.0411767 -0.265928 0.274791 -0.221005 -0.359419 0.0492107 -0.211963 0.278292 -0.207831 -0.424734 0.575053 0.353042 0.43548 0.00641172 -0.411531 -0.480235 -0.532806 -0.110811 -0.118303 -0.331237 0.0419291 -0.313723 -0.823173 -0.00843903 -0.346441 0.162638 -0.0374856 -0.609938 0.308935 0.0404792 -0.635809 -0.230218 0.445203 0.135381 0.0421934 0.441744 0.0742703 -0.148367 -0.254564 0.465591 0.728434 0.403936 -0.467657 0.466386 -0.395907 -0.205299 0.0869711 0.478277 -0.438672 -0.272539 0.4397 -0.121878 0.452744 0.0514527 -0.243904 -0.208738 -0.241198 0.167179 0.120892 0.236614 0.0147849 -0.089419 

Neuron 102

0.200448 0.388527 0.258148 -0.600733 -0.0421779 0.180769 0.0775841 -0.613901 0.306766 0.50122 0.464865 0.123026 0.104985 -0.131519 -0.0353567 0.528844 0.123003 -0.030675 -0.0611936 -0.120893 -0.0475598 -0.123843 -0.271171 0.397983 0.129605 0.115257 -0.269345 0.233694 0.568047 -0.717798 0.305005 0.300984 -0.0436761 -0.64249 -0.162869 0.129338 -0.213782 -0.0465937 -0.0430778 0.340628 0.281089 0.507803 -0.127405 0.505435 -0.0428005 0.526422 -0.224792 -0.183198 0.510902 0.504008 -0.25532 0.00688426 0.297931 -0.3301 0.498141 -0.269614 -0.527254 -0.0964511 -0.343821 -0.545747 -0.136972 0.0730154 -0.0500039 0.185245 

Neuron 103

-0.0895622 -0.00488094 -0.0350942 0.336793 0.475478 0.0598871 0.322807 -0.392372 0.699533 0.533291 -0.171971 -0.0822218 -0.145387 0.18194 -0.304232 0.118697 0.127415 -0.399662 -0.128399 0.418908 0.0758349 -0.135767 0.466445 0.564866 -0.413487 -0.35682 -0.31172 -0.0876357 -0.254304 0.287498 0.249378 0.249404 -0.186286 0.317551 0.301894 0.409549 0.206632 0.3092 -0.600131 0.00807748 0.442997 -0.0484373 0.556455 0.130569 -0.368953 0.11346 -0.115772 0.34515 -0.19507 0.233677 0.258697 0.355823 0.028456 -0.670081 0.720572 0.235923 -0.0880013 0.155166 -0.352523 -0.0962539 -0.223209 -0.617171 -0.126721 -0.0124361 

Neuron 104

-0.253393 -0.269688 -0.0161826 -0.338155 0.591291 0.0330567 0.347216 -0.118528 -0.0778934 0.540633 0.37772 0.0802886 0.172996 0.516768 -0.47045 0.0850765 -0.128866 -0.0953221 0.263613 -0.322903 0.111463 0.524907 0.400631 0.610059 -0.0925737 0.265106 -0.2306 0.245758 0.033165 -0.165045 0.293448 -0.175289 -0.348174 -0.0561463 0.0905934 0.653362 -0.0729887 -0.287995 -0.0879926 -0.420938 -0.0210003 0.302044 0.268213 0.536821 -0.433281 -0.262434 -0.49146 0.280557 -0.186566 0.166452 -0.0225408 -0.126257 0.341025 0.247434 -0.0359672 -0.434332 -0.42602 0.157721 -0.050493 -0.358187 0.128124 0.30769 0.419443 -0.405005 

Neuron 105

-0.180002 0.249892 -0.188141 -0.295027 0.0431156 0.283434 -0.110593 -0.10058 0.56227 -0.165783 -0.257457 0.409248 -0.391546 0.233282 0.37078 0.254221 -0.0532745 -0.315936 0.453663 0.388599 0.120766 0.150167 -0.206723 -0.171257 -0.377116 -0.0936284 -0.372373 -0.45652 0.197599 0.366954 0.168485 0.379299 0.311746 0.154529 -0.293207 0.235782 0.0830248 0.17186 0.104053 -0.169434 0.30947 0.195103 0.208922 0.201091 -0.149424 0.281657 -0.414341 0.28187 -0.478028 0.264814 -0.0348751 -0.287025 0.293064 -0.146343 -0.245477 0.0273241 0.151594 0.277242 0.130822 -0.0856686 -0.284159 -0.0206271 -0.0394137 0.38549 

Neuron 106

-0.182322 -0.200067 0.417389 -0.16535 0.380329 0.130712 -0.233704 0.332782 -0.133466 -0.0384129 -0.19572 -0.0205575 -0.364921 0.301355 0.113762 -0.0731578 0.226409 -0.0157349 -0.472421 -0.257716 -0.00750832 0.476655 0.323004 -0.316207 0.0374582 0.402889 -0.496443 -0.0856777 0.148061 0.264594 -0.333887 0.134293 0.335998 -0.407291 0.0765249 -0.349551 0.24192 0.409272 -0.369418 0.228101 0.375841 -0.530273 0.282919 -0.0583029 0.134092 -0.134062 -0.239213 -0.419641 -0.440482 -0.225161 0.184379 0.160475 -0.0935226 0.34 0.650868 -0.0925848 -0.587143 -0.0893045 0.195009 0.271909 -0.0806608 -0.469347 0.398001 0.114315 

Neuron 107

0.38674 -0.409574 0.110299 -0.343471 0.236283 0.203289 0.248207 -0.304044 0.110385 0.0786905 0.492839 -0.224823 -0.329947 0.323498 -0.0366794 -0.340097 -0.0810741 -0.316281 -0.0132091 -0.197586 -0.418602 0.441351 -0.41958 0.014584 0.388433 0.240259 0.411205 0.081683 -0.219909 0.27815 -0.398242 -0.22125 0.368379 0.326257 -0.300005 -0.431558 -0.276477 0.352483 0.064456 -0.0267914 0.14011 0.38386 0.0568835 -0.422149 -0.338286 0.42683 -0.506154 -0.235966 0.150486 0.0230122 0.183424 -0.0215416 -0.0249235 -0.355807 0.174086 -0.304298 -0.385356 0.0346051 -0.00897645 -0.230744 0.124238 0.411532 -0.388871 -0.427935 

Neuron 108

-0.00214616 0.32512 0.431646 -0.306773 -0.376736 0.286428 0.385445 0.123932 0.183617 -0.403778 -0.0485599 -0.310958 -0.176986 -0.412079 0.0484029 0.152104 0.0569405 0.405877 -0.167876 0.415066 -0.278373 0.389561 -0.464849 -0.108355 0.125059 0.318348 -0.250144 -0.373002 0.0669721 -0.434003 0.353034 0.265298 -0.0708104 -0.283359 -0.359238 0.205442 -0.0251083 -0.167805 0.186743 -0.431195 -0.227562 -0.177356 -0.493364 -0.255802 -0.127598 -0.440936 -0.50435 0.0475215 0.245641 -0.362707 0.0748388 -0.146927 0.226509 -0.146351 -0.0447301 0.0942737 -0.483673 0.412931 -0.35025 0.12816 0.496588 0.150065 -0.0977097 0.44526 

Neuron 109

-0.389861 -0.126964 0.324568 -0.0923204 0.0696223 -0.347695 -0.226683 -0.093399 -0.093037 0.0484671 -0.378118 -0.234492 0.408317 0.484877 0.340601 -0.269124 0.0930998 0.162394 0.459101 0.215532 0.102325 -0.346061 -0.134941 -0.369355 -0.302452 -0.295532 -0.484571 -0.106871 -0.368785 0.0642153 -0.190602 0.444881 -0.306972 -0.0714669 -0.118255 -0.436032 0.40578 -0.440469 -0.451206 0.249398 0.0297931 -0.000879805 -0.302113 -0.258204 0.316118 -0.459792 0.377734 0.387208 -0.0411039 -0.412523 -0.48824 0.243902 -0.433636 0.193726 0.347623 0.0223868 -0.17035 0.486541 0.140123 -0.187085 -0.393099 -0.290969 0.113371 0.195891 

Neuron 110

0.14264 0.121313 -0.397809 0.30542 -0.341959 -0.183458 0.0559075 -0.293269 0.282513 -0.284507 -0.133273 -0.245484 0.481492 0.368597 0.428115 0.415875 -0.285676 0.26055 0.442924 -0.209678 0.462831 -0.307917 -0.0709229 0.187499 0.151798 0.0952747 -0.276213 0.419327 -0.0475018 0.0601562 -0.0672753 0.100332 -0.247612 -0.306869 0.477104 -0.447925 -0.489069 -0.0159147 -0.375198 0.476397 0.0669821 -0.0960801 -0.494454 0.369897 0.383728 -0.262438 -0.207454 0.429584 -0.454578 0.497829 0.00882815 -0.463854 -0.303975 0.469788 0.325649 -0.251645 -0.146089 -0.00827472 -0.0865818 0.284261 0.385134 -0.275004 -0.228227 -0.0717224 

Neuron 111

0.193005 -0.0499341 0.346943 -0.38007 -0.293721 -0.257029 -0.292114 0.381451 0.411768 0.201678 -0.424074 -0.0227618 -0.269954 0.365419 -0.123976 0.173184 0.333001 0.218027 -0.152061 -0.191314 0.12 -0.275684 -0.209848 0.477181 0.439503 0.264315 0.43188 0.156241 -0.0261584 -0.351614 0.160722 -0.387958 -0.494582 -0.125819 -0.300485 -0.15093 -0.00833213 -0.369603 0.266021 -0.153136 0.167636 0.371782 -0.11419 0.112577 0.00742602 -0.406015 0.460999 -0.387827 0.456332 0.465332 -0.177498 0.0219741 0.221027 0.417053 -0.140983 -0.455365 -0.213863 -0.307211 -0.43069 -0.308722 -0.376081 -0.0592361 0.429308 -0.433333 

Neuron 112

0.376902 -0.413525 -0.123005 -0.348169 0.31577 0.150125 0.157981 0.191664 0.294318 -0.391125 0.365772 -0.477345 0.259235 -0.0350754 0.487521 -0.240717 0.272633 0.147639 0.373152 -0.428477 -0.408774 -0.272461 -0.259427 -0.193967 -0.00584168 -0.181141 -0.437313 0.081713 0.350956 -0.474504 0.00956535 -0.235141 -0.00904449 -0.010674 -0.398028 0.343815 -0.496909 0.449592 0.294776 0.305875 -0.165723 -0.311126 -0.0955221 -0.440098 0.278499 -0.272008 0.355732 -0.216113 -0.204477 0.359672 0.0106632 0.21648 0.374113 -0.27975 0.243298 0.103617 0.49788 -0.128239 -0.313711 0.456796 0.368991 -0.37619 0.370425 -0.258866 

Neuron 113

0.246865 0.0549286 0.184943 0.337074 0.208695 -0.466964 -0.259634 0.334553 -0.170226 0.0109355 -0.207129 -0.219648 0.37635 0.321439 0.418022 -0.307506 -0.259354 0.0408304 0.237145 -0.307037 -0.371399 -0.100171 0.41762 -0.0572255 0.211405 0.0759938 0.22792 -0.3539 0.000658674 0.0703328 0.0832573 0.3056 0.21308 0.228798 0.407908 -0.290244 -0.12834 -0.00796356 0.156419 -0.0711583 0.043251 -0.0811295 0.456478 0.0283466 0.421021 0.0990075 0.0189611 -0.32104 0.276811 0.36224 0.164066 0.45502 -0.486918 0.374206 0.277001 -0.443725 0.313861 0.0542712 0.135722 0.0770006 0.148452 0.0286875 0.151191 0.06905 

Neuron 114

-0.477129 -0.123151 0.202889 -0.0419788 0.444363 0.403851 -0.471828 -0.00571818 -0.0749396 0.48608 -0.436399 0.439858 -0.286641 0.429954 0.223796 0.3481 -0.479121 0.415355 -0.111099 -0.240523 -0.480323 0.202872 -0.312749 -0.368494 -0.273481 -0.390442 -0.153829 -0.405909 -0.116506 -0.119009 -0.177893 0.143238 0.408578 -0.0244281 0.440021 0.429572 -0.196831 -0.148688 0.00423605 0.18553 0.171605 0.14636 -0.130751 0.450989 -0.215356 -0.465238 -0.241821 -0.271424 0.171667 0.187768 -0.186511 0.317583 -0.3942 -0.32556 0.34335 -0.326613 -0.373649 0.0847131 -0.211005 -0.361979 0.225933 0.247257 -0.353335 0.492392 

Neuron 115

-0.346997 -0.0937118 0.140466 0.458295 -0.47862 -0.399045 0.370825 0.0804596 0.254494 0.257451 0.39131 -0.325559 -0.405777 0.139459 -0.40381 0.011336 0.374683 0.302643 0.209411 -0.325759 -0.246661 -0.442208 -0.39898 0.410038 -0.200506 0.284997 0.280724 -0.242054 0.294128 0.22552 0.475389 0.252186 0.468873 0.163955 -0.0719809 -0.381075 0.19383 0.442624 -0.320745 0.487514 -0.417051 0.113057 -0.336007 0.485829 0.125413 0.201663 -0.486344 0.36128 0.382237 -0.341106 0.177584 -0.261478 0.40734 -0.496078 -0.139457 0.450151 -0.126966 0.271602 0.381733 0.0457337 0.426559 0.0605537 0.235701 -0.416031 

Neuron 116

0.371347 -0.0478394 -0.000610231 0.466593 0.0422176 0.49823 -0.200087 -0.440674 -0.40674 -0.184314 -0.0266536 0.307726 0.450488 -0.00907844 0.0520594 -0.500149 0.282722 -0.0701438 -0.254751 -0.256551 -0.481653 -0.196473 0.0093691 0.128593 0.280651 -0.473113 0.419875 0.059775 -0.213218 -0.160942 -0.231361 0.250787 0.0942137 -0.328474 -0.485733 0.00525734 -0.0546597 0.146628 0.336135 0.422651 0.269046 0.20938 0.313024 0.142127 0.460248 0.411581 -0.231204 -0.212493 -0.238654 -0.0566513 0.390208 -0.32995 -0.00134659 -0.407208 0.422552 -0.168538 0.0421663 0.481439 -0.277621 0.0695049 -0.319271 -0.191532 -0.0578273 -0.139848 

Neuron 117

-0.311482 -0.0112758 -0.150195 0.182935 0.355015 -0.240309 -0.363476 -0.395458 -0.153431 0.152501 0.343587 -0.192802 0.42563 -0.409122 0.0678428 -0.271033 -0.0495832 -0.0391233 0.267783 -0.479086 -0.27219 0.286315 0.352309 0.190016 -0.16436 0.352779 0.161997 -0.00846958 -0.347434 0.287567 0.14243 0.180347 0.309551 0.176669 0.359222 0.486283 -0.340872 0.370476 0.0121337 -0.39682 -0.359429 -0.193328 0.173639 -0.245508 0.423069 0.0810744 0.456197 -0.351957 0.156684 -0.399312 0.161946 0.32341 -0.401853 -0.174519 0.211096 -0.317465 -0.325755 0.146598 -0.410323 -0.148264 -0.125292 0.187534 -0.224193 -0.305714 

Neuron 118

0.410111 0.480953 -0.135111 0.0927411 0.200061 0.496865 -0.0854439 0.36387 -0.353461 -0.470349 0.301095 -0.243531 -0.289437 0.360523 -0.160485 -0.0138516 -0.38863 0.348751 0.0378443 -0.161275 -0.098131 -0.15589 -0.174222 -0.184528 0.0526864 0.309534 -0.104254 -0.15687 0.45227 0.428255 0.486293 0.424267 -0.311304 -0.242876 -0.447883 0.49127 0.536222 -0.187285 0.0247054 -0.0811115 -0.0720745 0.0466126 -0.398353 -0.319421 0.426686 0.12954 0.13672 -0.0422127 -0.0661059 0.476558 -0.135659 -0.382865 -0.169172 -0.0740639 0.348558 -0.0508854 0.229315 -0.0142517 0.21453 -0.335842 0.253718 0.23423 -0.283915 0.107789 

Neuron 119

0.369967 0.481639 0.00565308 0.464109 0.0600199 0.108854 -0.058047 0.274052 0.160386 -0.436925 -0.220155 0.291389 0.344021 -0.0419472 -0.0176276 -0.444594 -0.208239 0.374449 0.187949 0.515543 -0.312855 -0.280981 -0.110468 0.208956 0.0412028 0.0722621 0.257972 0.0069344 -0.029079 -0.370026 0.156858 0.343505 -0.254097 0.246201 0.394199 -0.464865 -0.122705 0.397215 -0.244841 0.0875403 -0.169793 -0.0837827 -0.456956 0.305547 0.3606 -0.446166 -0.410529 0.390208 -0.0709035 0.314161 0.275328 0.0959232 -0.418542 0.401918 0.316089 0.458389 0.363345 -0.462896 -0.383968 -0.223187 0.405448 -0.0484847 0.0807922 0.121417 

Neuron 120

-0.298835 0.424198 -0.383927 0.164952 0.279693 0.232303 -0.130101 -0.543204 0.272981 -0.339096 0.214016 0.380906 0.138407 0.303022 0.0838274 -0.0679921 -0.0439294 0.159716 0.0323284 0.431361 0.124166 0.137716 -0.141168 0.0794937 -0.205841 0.0425277 0.453801 -0.181013 -0.439926 0.314752 0.363135 -0.167134 0.378139 0.249833 0.294621 0.300265 -0.218957 0.154684 -0.151898 -0.238468 -0.0105324 -0.50629 0.152769 -0.294101 0.164544 0.418785 -0.250831 -0.296925 0.0289207 0.240073 0.0479851 0.249405 0.227281 -0.331535 -0.473949 -0.429946 0.073982 -0.314003 -0.0771894 0.40482 0.0982769 0.0851971 0.379868 -0.167285 

Neuron 121

-0.334076 -0.188117 -0.406745 -0.294397 0.0406823 0.473665 -0.227566 -0.186837 -0.422504 0.228319 -0.0596873 0.521384 -0.328864 0.542789 -0.498387 0.245781 0.212319 0.139749 -0.441211 0.542251 -0.39526 -0.335338 0.12355 0.0880705 -0.125099 -0.0470634 -0.292857 0.0376848 -0.212184 -0.0304232 0.319057 -0.272267 0.309059 -0.317892 0.418005 -0.0118588 0.427433 -0.446637 0.338091 0.115275 0.365457 -0.326992 0.270328 -0.173249 -0.0297691 -0.104352 -0.315735 -0.327772 0.209847 -0.434241 0.0377363 -0.181507 0.142941 -0.0461484 -0.521039 0.270998 0.212548 0.333714 -0.474111 0.175498 0.0960435 0.537388 -0.435898 -0.0872836 

Neuron 122

-0.18316 -0.145575 -0.376067 -0.462708 -0.3958 -0.0102142 -0.184877 -0.234142 -0.203941 -0.23364 -0.444362 -0.179744 0.00840648 -0.397811 -0.109828 0.336396 -0.178889 0.467046 -0.245933 0.283463 0.027051 -0.604547 0.403376 0.202141 0.340128 0.0846454 0.245463 0.114974 -0.371478 -0.388955 -0.431968 0.346886 -0.49331 -0.382548 0.402628 0.103321 0.333037 -0.465639 0.01219 0.272827 -0.599503 0.0976971 0.500781 -0.0459624 -0.109042 0.349791 -0.235709 -0.0773042 0.252855 0.188145 -0.0699972 -0.59715 -0.256337 -0.013532 -0.28904 -0.249919 -0.124417 -0.65602 0.450174 0.523296 0.439479 -0.357494 0.347382 0.310951 

Neuron 123

0.232007 -0.272853 0.39403 -0.00138282 -0.153075 0.616773 -0.0208966 -0.0951538 0.190227 -0.181621 0.32127 -0.201646 0.102622 -0.214894 0.313628 -0.224583 0.638798 0.333707 -0.647516 0.194433 0.086878 -0.321755 -0.409779 -0.0299719 0.394349 0.478766 0.487754 -0.13315 0.58127 -0.627583 0.335957 0.0160464 0.337477 -0.223676 0.67062 -0.472558 0.323051 0.397118 0.1816 -0.186998 -0.51181 -0.0919399 0.571648 0.373175 -0.568918 0.200925 0.252117 0.667793 0.588261 0.190291 -0.118954 -0.0341737 0.121356 0.152126 0.227614 -0.103083 0.0483716 -0.172397 -0.233714 -0.0913396 -0.179322 0.010385 0.277274 -0.106562 

Neuron 124

-0.464775 -0.0463726 -0.162942 -0.00563599 0.145128 0.420348 0.189167 -0.87791 -0.302226 0.189995 -0.449792 -0.0698324 -0.141556 -0.340707 -0.219186 -0.165447 0.652706 0.208705 0.0644802 0.560111 0.370428 -0.318247 0.17158 -0.531483 0.23809 0.0273378 0.00595871 0.0395488 -0.171752 -0.227172 0.406834 0.339726 -0.260462 -0.327219 0.208244 0.203326 0.284387 0.263129 0.0568911 0.510236 0.265443 -0.225433 0.376727 0.17687 -0.387414 0.0492103 0.335066 -0.106118 -0.105564 0.222891 -0.609748 -0.54822 -0.00573549 0.244402 -0.617644 0.270608 -0.282296 -0.0813822 0.31057 -0.313455 0.109596 0.0989029 0.0455386 -0.022135 

Neuron 125

-0.691305 0.114358 -0.454607 -0.0879104 0.36595 -0.115159 0.0606748 -0.886743 0.410538 -0.0804371 -0.166537 -0.09988 0.449489 -0.337713 -0.326263 -0.126666 0.27003 -0.426425 0.186556 0.0995555 0.181103 -0.842022 0.222678 0.168776 0.0181153 0.241462 -0.464126 0.292016 0.288364 -0.372076 0.512224 0.837454 0.291181 0.23235 -0.130014 0.0711963 0.741402 -0.147387 -0.241935 0.662173 0.0659406 0.456091 0.161109 0.422595 0.336026 -0.2806 0.307198 -0.0130891 0.302728 0.235639 -0.527792 -0.561957 -0.0366858 0.170799 -0.767124 -0.0683848 0.094737 -0.095873 -0.200934 0.290751 -0.0386546 -0.176224 -0.00899815 -0.33109 

Neuron 126

-0.144011 0.45088 0.287164 -0.162511 -0.325519 0.24229 0.111316 0.0135259 0.0538502 0.272197 -0.309786 0.593366 0.380047 0.535452 0.0672965 0.207663 0.401508 0.053481 -0.0168735 -0.262588 -0.140787 -0.530282 0.416653 0.316061 0.165535 0.116891 -0.0982347 -0.0952843 -0.0908983 -0.242094 -0.301741 0.569958 -0.419652 0.148563 -0.0421398 0.0330176 0.346764 -0.306952 -0.439698 0.349019 0.230065 -0.21413 0.219735 0.665876 -0.268266 -0.155894 0.529005 -0.194144 0.519614 0.114375 -0.289465 -0.528632 -0.498231 0.125344 -0.800938 -0.0288213 -0.0142212 -0.725403 0.159166 -0.347846 0.574874 -0.115649 -0.411793 -0.068438 

Neuron 127

0.0541784 -0.076385 0.510319 -0.0840852 0.563167 0.127544 -0.445368 -0.144733 -0.188416 0.489421 0.318042 0.339925 0.100229 -0.350432 -0.284702 -0.588746 -0.228185 0.285935 -0.0950711 0.126465 0.213746 -0.521498 -0.272295 0.336174 -0.68862 0.634497 0.409754 0.0502151 0.038052 -0.284403 0.553923 0.793908 -0.481554 -0.69809 -0.195172 -0.223296 0.356482 -0.252319 -0.60319 0.0524049 -0.183998 0.00602792 0.481272 0.214303 -0.295379 -0.205788 -0.0757411 0.620748 0.180506 -0.205135 0.106148 -0.176882 0.123863 -0.454678 0.276358 0.276739 -0.23975 -0.231009 0.471499 0.402611 0.258622 0.291972 0.048924 -0.0278084 

Neuron 128

0.490085 0.0795946 0.646619 0.428016 0.669007 -0.442791 -0.095792 0.095309 0.141813 -0.159094 -0.431214 0.111551 -0.0948992 -0.0514236 0.138798 -0.240929 -0.214083 0.0553634 0.106194 -0.275102 -0.261836 -0.831214 -0.101472 0.252435 -0.573726 0.0971183 0.146493 0.170022 -0.200437 -0.902547 0.297392 0.241769 0.145941 0.0152341 0.267481 -0.350702 0.190623 -0.41278 -0.132097 0.560809 -0.621238 -0.0309095 -0.0528036 0.431601 0.267092 -0.176334 0.413827 0.00234928 0.0872557 0.486053 0.20871 -0.64658 0.159468 -0.666182 -0.566552 0.366704 0.190395 -0.23348 -0.0293955 -0.10814 0.756107 -0.296897 0.0408835 0.0738426 

Neuron 129

-0.370033 0.347968 -0.190327 -0.508756 0.38269 0.247918 -0.305798 -0.278128 -0.353529 0.268995 0.0994852 0.400918 0.200859 0.492132 0.0439014 0.241698 -0.117095 -0.437269 -0.778699 0.541562 0.200436 -0.499215 -0.41411 -0.0234443 -0.762612 0.809721 0.387494 0.288024 -0.117644 -0.663829 0.278288 0.458466 -0.0916639 -0.168221 7.92338e-05 0.0730423 -0.234606 0.0574233 -0.693436 0.14002 -0.541257 -0.0162655 0.604419 -0.15679 0.103553 -0.501484 0.139375 0.361589 -0.100602 0.338423 0.0287764 -0.231865 -0.625962 -0.395235 0.0641781 0.272283 -0.552204 0.0158666 -0.100766 0.117468 -0.109465 0.422077 -0.212792 0.183711 

Neuron 130

0.207276 0.45456 0.326585 -0.551232 0.627172 0.0720646 -0.470257 0.0882516 0.00853533 0.175543 -0.210466 -0.00838573 -0.196765 0.230811 -0.11846 -0.0714699 0.489526 -0.25407 0.201754 -0.0832742 0.566237 -0.356555 -0.28051 0.0395189 0.0142427 0.467271 -0.0209754 0.230651 -0.35558 -0.118619 0.0834748 0.310392 0.310237 -0.598536 0.121498 0.491291 -0.217791 -0.0277596 0.196512 -0.0467653 -0.534446 0.225267 0.0940635 -0.0569422 -0.153301 -0.167376 0.374318 -0.35978 0.38989 0.274844 -0.159981 -0.502201 0.12023 -0.372312 -0.0994943 -0.198795 0.0756639 0.571382 -0.11928 -0.0052651 0.632336 0.248751 -0.0272522 0.224334 

Neuron 131

0.195485 0.0905061 -0.318299 0.121318 0.773668 -0.112866 0.13108 -0.297206 -0.277819 0.112287 -0.295919 -0.0661141 -0.0352773 -0.437391 -0.244315 0.476333 -0.176054 -0.634549 0.189947 -0.21291 0.189588 -0.322357 -0.308461 0.527472 0.158028 -0.237392 -0.306485 -0.21563 0.34076 -0.10917 -0.0920114 0.387203 0.205621 0.081131 -0.363661 -0.080409 0.139722 0.301024 0.0781462 -0.154567 0.12231 -0.0960349 0.126175 0.0189486 0.20916 0.0255658 0.434714 -0.144572 0.285244 0.317036 -0.281157 -0.668785 0.459599 -0.223014 0.411222 -0.45262 -0.470622 0.583627 0.403264 -0.515237 0.504956 -0.260297 -0.335734 -0.0824328 

Neuron 132

0.209048 0.35935 0.148491 0.332998 0.676099 -0.443937 0.189355 0.0490686 0.546042 -0.0413256 0.508059 -0.428108 -0.390462 0.0161006 0.508045 -0.119677 -0.579902 -0.0171003 -0.129152 -0.135054 0.337145 -0.0548545 0.356446 0.494038 -0.0738804 0.514579 0.41515 0.00971293 0.369667 -0.310019 -0.200548 -0.0644241 0.386004 -0.342755 -0.176032 0.193537 -0.228649 0.0990774 0.0830577 0.284781 -0.0484267 0.120675 -0.257998 0.559509 -0.346067 0.215291 0.374617 -0.189061 0.343492 0.416522 0.275477 -0.277377 0.0954325 -0.422676 0.339868 0.235018 -0.72751 0.49837 0.061137 -0.249958 -0.245181 0.183358 0.0162392 -0.438759 

Neuron 133

-0.224226 -0.208563 -0.314044 -0.0482525 0.597039 0.270228 0.0487248 -0.263811 -0.164278 -0.185276 -0.386119 0.172961 0.105734 0.211298 -0.357059 0.532497 -0.403827 0.245958 0.380528 0.0411836 0.106909 0.388752 0.503472 0.00124076 0.246848 -0.145886 -0.448034 -0.442055 0.174868 -0.482314 -0.547481 -0.0567553 0.0766324 -0.0257563 0.219657 0.516737 -0.685841 -0.349205 -0.545498 0.0554746 0.316536 -0.57331 -0.178804 -0.0949673 0.278574 0.329136 0.132892 -0.533582 -0.349589 0.182227 0.279338 -0.574568 0.0907873 0.145136 0.417098 0.112803 -0.447259 0.360456 -0.402585 0.395684 0.487619 -0.412307 0.304376 -0.204285 

Neuron 134

0.0532116 0.290582 0.236939 0.228868 0.640174 0.254382 -0.178455 0.599734 0.0748169 -0.228675 0.241654 -0.335305 0.127876 0.311944 -0.0988062 0.640167 0.372016 0.503043 -0.254086 -0.209134 0.325993 0.529604 -0.0122334 0.291086 0.107973 -0.254954 -0.313073 0.125619 0.144751 -0.032935 0.354776 -0.0902117 -0.253421 -0.0523516 0.146118 0.0836354 -0.724212 0.21773 -0.0301818 -0.0675937 0.171126 0.0632561 0.151578 -0.232778 -0.244822 -0.183907 0.0934297 -0.128472 0.123709 0.483071 0.575871 -0.00643265 -0.0285011 0.0126117 0.480214 0.448016 -0.206519 0.690148 -0.363835 -0.00306868 0.365812 -0.088809 0.0789003 0.234386 

Neuron 135

0.433813 0.507976 -0.308489 0.248806 -0.119962 -0.140604 0.0320462 -0.221407 -0.411075 -0.173651 0.154049 0.475298 0.527673 -0.431507 0.106321 -0.246727 -0.361489 0.194627 -0.290377 0.0982088 0.477524 -0.183117 0.415784 -0.0378736 -0.34525 -0.0531222 0.597085 0.194663 -0.197347 0.550605 0.275413 -0.224425 0.338108 0.219637 0.174805 0.0736791 -0.504852 0.409757 0.0694219 -0.288298 -0.28503 0.0412146 -0.0865554 -0.441932 0.435912 0.537985 0.180163 -0.111087 0.205721 0.24662 0.403267 -0.0454746 -0.157934 -0.00642175 0.137962 -0.04879 0.471415 0.204837 -0.410848 0.368825 0.364955 0.238718 0.409202 0.223855 

Neuron 136

0.560086 -0.128183 -0.284388 0.0158246 0.204684 -0.39244 -0.00280713 0.0472867 0.39601 0.534063 0.122175 -0.0314611 0.116152 -0.0736746 -0.338293 0.232977 0.0477081 -0.0387401 -0.136909 0.187992 0.190054 -0.208753 0.315268 0.260263 0.00548365 0.209365 0.27498 -0.0329828 0.456389 0.22381 -0.264357 0.478115 -0.0330206 0.511639 0.41795 -0.448537 -0.265355 -0.505135 0.215949 -0.451879 -0.127016 -0.396627 -0.546402 0.197127 -0.230301 0.417366 0.481084 -0.455247 0.291334 0.0999649 0.449828 0.0951568 0.0735995 0.514429 -0.165967 0.0239097 0.41309 -0.144643 -0.242261 0.454431 0.0717178 0.350024 0.405207 -0.341037 

Neuron 137

-0.392677 -0.00940847 0.0324973 0.0513231 -0.331348 -0.549659 -0.059327 0.580233 0.0889213 -0.479103 -0.115849 -0.154255 -0.298539 0.169255 0.458996 0.496987 0.0982545 0.175967 -0.0334041 -0.465278 0.404526 0.5109 -0.0657937 -0.509414 0.355175 -0.306679 0.524743 -0.294969 -0.307996 0.164358 0.458752 0.341707 0.247095 0.462524 0.147393 0.0536069 -0.308896 -0.149978 0.520793 0.271971 0.344241 0.40507 -0.0434667 -0.157895 -0.122781 0.288486 -0.24664 0.107688 -0.356776 0.472148 -0.192052 -0.313893 -0.0699117 -0.397531 0.367896 0.323052 -0.470942 -0.133035 0.172681 -0.393407 -0.207367 0.125505 0.0858552 0.535204 

Neuron 138

-0.17592 0.423544 -0.021828 -0.355489 0.449862 0.206156 0.374078 0.0995004 -0.356125 0.351925 -0.365815 -0.0457119 -0.153944 -0.346632 -0.480929 -0.376288 -0.252203 0.230047 0.243513 -0.298774 -0.114911 -0.461322 -0.24897 -0.221687 0.214914 -0.128851 -0.0870495 0.0117714 -0.399729 0.272242 -0.434166 -0.397679 -0.321065 -0.322095 0.0450478 0.46418 0.325235 0.392423 0.206927 -0.272857 -0.070593 0.0716972 -0.345996 0.12937 0.354511 0.202193 0.350085 -0.344146 -0.0906716 0.0780398 0.19794 -0.234166 0.229435 0.390506 0.213836 -0.0291647 0.16652 0.259297 -0.430676 0.0990373 -0.31919 -0.309614 -0.447631 0.0380628 

Neuron 139

0.330815 -0.247791 0.294398 -0.392042 0.198037 -0.116938 0.373364 -0.244854 -0.440456 -0.47336 -0.438627 -0.128805 -0.072495 -0.0780894 -0.0311803 0.0841063 -0.29346 -0.251853 0.410006 0.384138 -0.284535 0.311281 0.101239 0.422704 -0.144256 -0.483331 0.377198 -0.0116527 -0.0631762 -0.22726 -0.0945062 -0.364444 0.462357 -0.173436 -0.297575 -0.23795 -0.412661 0.0122403 0.496316 -0.0917424 0.277464 0.0679237 0.438126 0.330809 -0.190581 0.193759 -0.329129 0.229225 0.435958 -0.418314 0.156664 -0.305702 0.320032 -0.0490211 0.079878 0.206299 0.0939573 -0.218708 0.301601 -0.348107 0.310696 0.430399 0.0942589 0.0236275 

Neuron 140

-0.464441 0.354967 -0.133287 -0.09256 -0.00395645 -0.458575 -0.32852 0.17154 0.0551004 0.17035 0.383646 0.267787 -0.246053 0.197272 -0.191461 -0.175337 -0.04777 -0.231118 0.38917 0.0166562 -0.375408 -0.422377 -0.339619 -0.186132 0.118584 0.417358 -0.323169 0.47333 0.271682 0.28323 -0.331948 -0.487451 0.497378 -0.386359 0.0184977 0.396424 0.0540821 -0.321271 -0.146713 0.489555 -0.41162 0.214329 0.268015 0.00786871 -0.277809 -0.0053754 -0.395843 -0.0165206 0.317632 -0.405645 0.261685 -0.441185 -0.211541 0.196193 0.463008 0.256882 0.275834 0.225844 -0.228834 -0.169458 -0.204979 0.485957 -0.19112 0.123991 

Neuron 141

-0.438712 -0.437364 0.223043 -0.31747 0.287571 0.210341 0.207407 -0.116172 0.489258 -0.0404392 0.338649 -0.327987 -0.48084 -0.472485 -0.0570741 -0.24483 0.145585 -0.152234 0.405228 -0.328001 0.279869 -0.240358 0.3102 -0.472613 -0.212699 0.170644 0.0160875 0.38328 -0.207739 -0.475651 -0.265819 0.371811 0.0218438 0.128365 0.426596 -0.200131 0.399842 0.152306 -0.199341 -0.329601 0.388175 0.0526843 0.465741 -0.295957 -0.152835 0.304931 -0.0258762 0.0981262 0.207839 0.150259 0.406348 0.498979 0.346884 0.0774243 0.270503 0.336662 0.283626 -0.100349 0.438286 0.269122 0.132957 -0.397577 -0.0712511 0.482008 

Neuron 142

0.103203 -0.47122 0.20678 0.348666 0.0257228 0.323696 0.350915 -0.166707 0.149893 0.252138 -0.319962 0.391013 -0.243263 0.482734 0.313208 0.0789779 0.381595 0.464631 0.0532492 -0.041163 0.174162 0.145591 -0.0551008 -0.0792831 0.489652 -0.413344 -0.0661741 -0.187339 0.398118 0.177302 -0.081663 0.489619 0.027564 0.268854 -0.36474 -0.191356 -0.115837 0.130943 -0.236629 -0.0312149 0.371511 -0.0211477 -0.429265 0.336792 0.459513 0.0355108 -0.170038 0.178799 0.080302 -0.364594 0.272949 0.450591 0.0899535 -0.15229 0.454364 0.488428 0.011249 0.0618644 -0.24531 0.0810437 0.101654 -0.498132 -0.10074 -0.130112 

Neuron 143

0.207506 0.0320504 -0.401284 0.0341715 -0.30049 0.205462 0.13118 -0.493978 0.315947 0.154414 0.342832 0.21903 -0.32935 -0.328531 0.418817 0.491855 -0.427676 0.419457 0.13305 -0.0523554 -0.223616 -0.103019 -0.320606 -0.200802 0.0785707 0.260216 -0.153371 0.246671 0.198589 0.0780302 0.44906 0.320758 -0.491804 -0.364905 -0.319231 -0.488229 -0.355165 0.0382882 0.309691 -0.45181 -0.255777 0.301544 -0.0503155 0.025546 0.249207 0.459879 0.249717 -0.357011 -0.479215 0.220034 0.485272 0.0721259 0.488448 -0.445689 -0.0307635 0.260886 -0.0531469 -0.450236 0.327317 -0.22281 0.0824449 0.236485 -0.120115 -0.439351 

Neuron 144

-0.257315 0.327085 -0.44582 -0.453516 -0.15434 0.276982 -0.0351015 -0.477835 0.0359567 0.247222 0.0767174 -0.40985 -0.229093 0.0559497 0.435198 0.251957 0.453428 0.455351 0.231423 -0.00252164 -0.270075 0.0883279 -0.48115 0.122913 0.385882 0.484688 -0.290683 -0.124477 0.15096 0.136499 -0.450294 -0.125103 -0.180652 -0.365781 -0.0729662 0.0343472 -0.331153 0.218188 0.434779 -0.095661 -0.360516 -0.400519 0.19425 0.264548 -0.385687 -0.110613 0.465292 0.14614 0.248997 0.110692 0.0757368 -0.0369318 -0.264326 0.439902 0.186164 0.475723 -0.155842 0.0131725 -0.279712 -0.356419 -0.470079 -0.425515 -0.193829 -0.289387 

Neuron 145

-0.0427939 -0.134217 0.196171 -0.0606053 -0.467715 -0.0202134 0.0165163 0.355437 0.261338 -0.339891 0.207574 0.471015 0.345316 0.0560741 -0.164102 -0.464335 0.0198305 0.388839 0.345885 -0.40748 0.0834364 -0.168392 -0.0462066 0.0125033 -0.242102 -0.33947 -0.469503 0.444765 -0.345416 -0.298406 0.428308 -0.204895 0.3317 0.380303 0.261704 0.274596 -0.103666 0.463256 0.338204 0.451928 -0.340401 -0.297594 -0.425325 0.350551 0.287192 0.476015 0.329515 0.00926274 -0.273889 -0.402416 0.416688 0.081566 0.419537 0.325972 0.411704 0.34852 -0.491528 -0.367843 0.12813 -0.463912 -0.0278408 -0.133296 -0.0223636 0.236716 

Neuron 146

-0.0788232 0.481454 -0.49121 0.475441 0.248264 0.409137 0.191114 -0.443759 0.457137 -0.173528 -0.109257 0.200636 0.410023 -0.334185 -0.33104 -0.245135 -0.106003 0.245409 0.0950939 -0.139089 -0.16131 0.286184 -0.132713 -0.151925 0.0905197 -0.0911018 0.306772 0.0699266 0.457316 0.250986 -0.252285 0.116974 -0.436695 -0.0345158 -0.194292 0.153121 0.139216 0.2452 -0.16189 0.533325 -0.222571 -0.00488517 0.189564 -0.0451066 -0.499531 0.486063 0.0331434 0.0429787 0.103962 0.274012 0.395255 -0.0756466 -0.464185 0.0143896 -0.220544 -0.326644 -0.231848 -0.0252055 -0.383321 0.149825 -0.39602 -0.0335971 -0.216945 -0.471881 

Neuron 147

-0.340127 -0.190039 -0.119961 -0.166839 -0.356781 0.403447 -0.0514418 -0.155203 -0.250559 -0.445066 -0.0696702 -0.243322 -0.157309 0.216958 0.466255 0.452728 -0.229276 0.200425 -0.103967 0.525713 0.0773649 -0.108163 -0.237584 0.0182826 0.48919 -0.139186 0.0244663 -0.283644 0.449614 0.257326 -0.108911 -0.446953 -0.488279 0.267449 0.0853878 -0.195882 0.689714 -0.16548 0.237753 0.221323 0.00300456 0.409665 -0.0923582 -0.247463 -0.178198 -0.53279 0.513551 0.627346 -0.289777 -0.0489808 0.292133 0.418905 0.248621 0.0609298 0.445343 -0.0410204 0.387427 -0.0928664 -0.409706 -0.104706 -0.0657826 0.447767 -0.288553 0.0835219 

Neuron 148

0.280198 -0.450918 -0.0136141 0.318467 -0.482159 0.463962 -0.00644135 -0.717039 0.194472 -0.0656288 0.352683 0.14954 -0.0203212 -0.19909 0.482433 0.125525 0.313169 0.341364 -0.00793862 -0.237524 0.446898 -0.42203 -0.170296 -0.243924 0.387872 0.0824778 0.169829 -0.328968 -0.187901 -0.50407 0.393376 -0.205389 0.411226 0.140888 0.121564 -0.285265 0.797048 0.0692978 0.0427711 0.157006 0.299348 -0.176683 0.441993 0.154369 -0.510914 -0.350048 -0.252143 0.538236 -0.218494 0.198789 0.0311223 -0.153582 0.373024 -0.416424 -0.414778 -0.563363 0.0324502 -0.609147 0.0918574 0.504604 -0.0334252 0.172591 0.425993 0.0539069 

Neuron 149

-0.499877 -0.270755 -0.115569 0.584245 0.121671 -0.348463 -0.110514 -0.0170525 -0.108723 0.0463147 -0.37071 0.524855 0.210818 0.317753 -0.092404 -0.308358 0.414478 -0.294563 0.322065 0.17516 0.444006 -0.430885 -0.290061 -0.019044 -0.400531 0.54337 0.502039 0.243745 -0.359116 -0.0227174 0.527952 -0.11805 0.271175 0.0454201 0.500168 0.352405 0.584281 0.39089 -0.0189284 -0.0277347 0.417476 0.02559 0.26291 0.26681 -0.370051 -0.290704 0.377636 0.449092 -0.264536 0.171687 -0.33529 0.112027 0.337702 -0.259826 -0.392729 0.238629 -0.388639 -0.499384 -0.307341 0.154629 -0.115436 -0.0750942 0.382382 -0.518472 

Neuron 150

0.139775 -0.112417 -0.0651342 -0.34275 0.460091 0.130125 0.328016 -0.193414 0.0269689 -0.175122 0.267465 0.348152 0.167095 0.0872494 -0.308929 0.0129394 0.592888 0.198894 -0.580151 0.219612 0.303117 -0.0499736 -0.0171 0.217378 -0.0854213 0.277769 0.334031 -0.205838 0.210587 -0.0443188 -0.310127 0.0824712 -0.252109 -0.446288 -0.210238 0.200489 0.19774 0.138761 -0.572089 0.0726715 -0.250756 0.123128 0.120256 0.36434 -0.504435 -0.280249 0.120816 0.192436 0.412833 -0.28809 -0.00614106 -0.304025 0.131622 -0.197284 -0.0819707 -0.108052 -0.138903 -0.49691 -0.331705 0.309888 0.459935 0.0226788 0.408112 -0.115824 

Neuron 151

-0.0296881 -0.337409 -0.49454 0.270824 0.105311 0.594429 -0.00855291 -0.0199231 0.350911 -0.248876 -0.222583 0.126096 -0.206591 -0.0435587 -0.330659 -0.0260584 0.552695 0.644195 0.292292 0.1619 0.32619 -0.736017 0.322139 -0.294983 -0.00920404 0.613927 0.118748 0.298589 0.382171 -0.568613 0.0460579 0.159183 0.0458942 0.248587 0.476776 -0.42553 0.132868 -0.559054 -0.685566 -0.0527506 -0.444519 -0.209305 0.413783 0.629058 -0.358181 -0.492352 0.132563 0.0543223 -0.155769 -0.225977 -0.177792 -0.100655 -0.248875 0.189563 0.344281 -0.492023 -0.549138 -0.192809 -0.421753 -0.0495952 0.36707 0.148614 -0.044566 -0.42791 

Neuron 152

-0.648785 0.301895 -0.156871 -0.193725 -0.0580223 0.149097 0.0860289 0.212612 -0.255142 0.242088 0.233773 0.553714 -0.623413 0.0936559 0.197338 -0.630633 -0.304532 0.334935 -0.291115 0.715062 0.187836 -0.240953 -0.24364 -0.480038 0.301827 0.340951 -0.316742 0.238244 -0.1905 -0.116212 0.601069 -0.148145 -0.282533 -0.136697 0.534169 0.114504 0.614272 0.184386 -0.136319 0.223671 0.195628 0.343877 0.0447196 0.334422 0.0516378 -0.0350172 0.0793487 0.0310737 -0.235242 0.239107 0.197064 0.249896 -0.139275 -0.195716 -0.0129644 -0.143961 -0.577691 -0.722484 -0.484487 -0.199875 0.182208 0.68736 0.0388134 0.0727986 

Neuron 153

0.101715 -0.473529 -0.688615 -0.339413 0.14408 -0.556857 -0.29164 -0.430071 0.109947 0.2263 -0.451748 -0.387921 -0.696513 0.327537 0.109421 -0.257837 -0.219086 -0.04923 -0.230496 0.771912 -0.501067 0.183684 -0.0994809 -0.0282013 0.22927 0.0204096 -0.0695542 -0.301705 0.347993 0.293328 -0.0658125 0.150732 -0.481813 -0.36614 0.345229 -0.123594 0.283819 0.262066 -0.43979 -0.0360696 0.11779 -0.592495 0.160945 0.560065 0.308319 0.160605 0.384841 0.540262 -0.0524277 0.322715 -0.59802 0.0987 0.231219 -0.274413 -0.32337 -0.183201 0.0411467 -0.280547 -0.636433 0.411386 -0.112151 0.623987 0.119754 -0.386533 

Neuron 154

-0.184456 0.266481 -0.372606 0.0568917 -0.307912 0.15718 -0.285919 -0.349765 0.171581 -0.220535 -0.562829 -0.193546 0.0831816 -0.419647 -0.263288 -0.576263 -0.36914 -0.16779 -0.413301 0.161029 -0.19151 0.0633136 0.0527619 -0.0528243 0.476055 0.431952 0.310242 0.0962608 -0.0767934 -0.576342 -0.200216 0.638829 0.111674 -0.334708 -0.158259 0.0817308 0.481618 0.0408695 0.55864 -0.0826253 -0.260226 -0.193921 0.0525385 -0.0953847 -0.246956 -0.762114 0.663855 0.159578 0.310218 0.107489 -0.579286 -0.304921 -0.466418 -0.427981 -0.595764 -0.349119 -0.444042 -0.929474 -0.187312 -0.634904 -0.0968545 -0.0263776 -0.100342 0.416383 

Neuron 155

-0.766905 -0.0954944 -0.101346 -0.282891 -0.61246 -0.412169 -0.159994 0.135284 0.207416 0.101165 0.258214 -0.0417707 -0.45316 -0.669889 0.636105 -0.869944 -0.397964 -0.24049 -0.147676 0.89678 -0.169189 -0.431236 -0.666018 -0.308689 -0.391514 -0.411691 -0.320705 0.378646 -0.118586 -0.162638 0.365476 0.188386 0.252036 -0.502183 0.207969 -0.271254 0.618941 0.170983 -0.356903 0.101105 -0.0672994 -0.203289 0.117985 0.327157 -0.330938 0.0450627 0.851756 0.48963 0.13329 -0.171694 0.138749 -0.29511 -0.852055 -0.653856 -0.728322 0.352098 -0.0690916 -0.908411 -0.564237 -0.596363 0.0399908 0.283453 -0.732497 0.487045 

Neuron 156

-0.00605311 0.0782735 -0.0790201 -0.00819247 -0.357609 0.398174 -0.750342 0.0640084 -0.117359 0.0990576 0.187927 -0.000586823 -0.500806 -0.579241 -0.111665 -0.63281 -0.404177 -0.574369 -0.660288 0.523928 -0.494071 -0.32678 -0.414309 0.20071 -0.18124 0.206826 0.00918412 -0.0781078 -0.0281768 -0.0324159 -0.259362 0.485281 -0.474599 0.213903 0.111668 0.0707043 0.21631 0.0954051 0.246026 -0.198898 -0.337525 -0.640703 0.0610031 0.0330659 -0.146048 0.407631 0.847107 0.896813 0.342685 0.170404 0.217085 -0.240678 -0.347426 -0.245324 0.127989 -0.343068 -0.0676293 -0.89514 0.0129052 -0.0766557 0.114388 0.291134 -0.325863 0.456201 

Neuron 157

-0.679374 -0.0311734 -0.0364581 -0.428214 0.262542 -0.445635 0.042106 -0.154026 -0.220872 -0.133626 -0.677709 -0.119266 -0.312806 -0.424461 0.409127 -0.139379 0.380154 0.227568 -0.730587 0.367848 -0.24317 -0.740586 -0.295438 -0.2714 0.0702396 0.035149 -0.337493 -0.0786545 0.126321 -0.199039 -0.262898 0.663885 -0.0693852 -0.519326 0.3904 0.463476 0.550249 -0.380258 -0.111084 -0.128765 0.178871 -0.453724 0.263422 -0.14026 0.463405 -0.0437694 0.697238 0.208648 0.376703 0.618228 -0.360069 0.203926 -0.846959 -0.0189772 0.0451097 0.0939195 -0.190016 -0.582466 -0.618285 0.108634 -0.0892091 0.0916393 -0.384746 0.226318 

Neuron 158

-0.0498073 0.647093 0.679544 -0.319095 -0.27226 0.088129 -0.162973 0.0156369 0.316971 0.214887 -0.0238045 -0.101292 -0.326749 -0.793505 -0.202187 0.296082 0.398605 -0.426696 -0.284849 0.282617 0.0605135 -0.843751 -0.196665 -0.284146 -0.264453 0.143642 0.605009 -0.15327 0.133916 -0.00488441 0.340472 0.584154 -0.518939 0.0532235 0.472161 0.212174 0.179356 0.0197582 -0.483906 -0.4513 -0.0329335 -0.566831 0.521148 0.408703 0.64706 0.741637 0.307126 0.558687 0.220402 -0.0216238 0.177343 0.12738 -0.568684 0.185016 -0.0579772 -0.112295 -0.882095 -0.312075 -0.558507 -0.445325 -0.362452 -0.227276 0.155767 0.116713 

Neuron 159

